1000 25
<unk> -0.9316530227661133 -1.1135499477386475 -0.1917569935321808 1.6020150184631348 0.9830030202865601 1.8198109865188599 -0.8857970237731934 1.1197500228881836 0.8006659746170044 0.24520300328731537 -1.3557699918746948 -1.009323000907898 0.07864800095558167 -0.4825339913368225 -0.61981600522995 -0.28853699564933777 -0.10565900057554245 2.50763201713562 -0.832846999168396 -0.41848498582839966 -0.26520198583602905 1.0528780221939087 0.6677970290184021 1.0425230264663696 -1.0127090215682983
<s> -0.30149099230766296 0.3504669964313507 0.045843999832868576 0.32872098684310913 0.18520599603652954 0.544219970703125 0.4839540123939514 0.32350799441337585 -0.21997100114822388 0.37866100668907166 0.27351999282836914 -0.4589160084724426 -0.07162100076675415 -0.14309300482273102 0.1994899958372116 -0.48028498888015747 0.3195590078830719 -0.3432129919528961 0.5686140060424805 0.2985270023345947 0.20666800439357758 0.45374301075935364 0.5894250273704529 -0.22998900711536407 -0.181426003575325
</s> 0.4107170104980469 -0.3273249864578247 0.4423840045928955 -0.17477500438690186 -0.7712119817733765 -0.6029629707336426 0.008066000416874886 0.8990600109100342 -0.033236000686883926 -0.17434200644493103 0.2702760100364685 -0.18343399465084076 -0.28753501176834106 -0.019471000880002975 0.07131700217723846 -0.13375499844551086 -0.5521169900894165 0.6883829832077026 -0.7956920266151428 -0.21566200256347656 -0.5707640051841736 0.5372989773750305 0.2267729938030243 0.5542960166931152 0.28479599952697754
en 0.20934900641441345 0.3220129907131195 0.10757199674844742 -0.04104600101709366 -0.3769789934158325 -0.45329099893569946 0.4444830119609833 -0.9103059768676758 0.023833999410271645 -0.06304500252008438 -0.06422799825668335 -0.047099001705646515 -0.3048810064792633 0.09161800146102905 -0.07370000332593918 -0.21039800345897675 0.2473829984664917 -0.2195190042257309 -0.24428600072860718 -0.3567410111427307 0.26547500491142273 -0.1743759959936142 -0.1305609941482544 0.07826100289821625 0.37041598558425903
er 0.26657500863075256 -0.14748799800872803 0.32057899236679077 -0.40188300609588623 0.5145059823989868 -0.4151749908924103 0.4282059967517853 -0.0541980005800724 0.31070199608802795 0.034088000655174255 0.2982499897480011 0.16207100450992584 0.13952399790287018 -0.004548999946564436 -0.16193599998950958 0.2813960015773773 0.10051999986171722 -0.22505100071430206 -0.10190500319004059 -0.2694930136203766 -0.14951199293136597 -0.2133910059928894 0.28075799345970154 -0.1349720060825348 -0.0057310000993311405
▁d 0.002742999931797385 -0.3555060029029846 -0.42253100872039795 0.28743600845336914 0.03972499817609787 0.12717799842357635 0.17107799649238586 0.45633000135421753 -0.11505699902772903 -0.20561499893665314 -0.20410199463367462 0.10532499849796295 0.06342499703168869 0.19002600014209747 0.2814289927482605 -0.04873799905180931 0.2897639870643616 -0.018688000738620758 -0.15657199919223785 -0.00737100001424551 -0.22578099370002747 -0.05494699999690056 0.0004560000088531524 -0.1564760059118271 0.027279000729322433
an -0.11710800230503082 -0.29455599188804626 -0.14472399652004242 0.11591199785470963 0.957843005657196 0.06413199752569199 0.257066011428833 -0.05068499967455864 0.2280779927968979 0.35509300231933594 0.03280499950051308 0.08624300360679626 -0.12092000246047974 0.014062000438570976 -0.31191301345825195 -0.3643360137939453 0.3659380078315735 0.04310299828648567 -0.2811410129070282 0.14646199345588684 -0.4294489920139313 -0.07563500106334686 0.6234989762306213 0.008186999708414078 -0.17911599576473236
▁v -0.15111100673675537 -0.07705000042915344 -0.20458300411701202 0.5023040175437927 -0.1676200032234192 0.1110839992761612 0.3337090015411377 -0.4800879955291748 -0.12922999262809753 0.07361900061368942 -0.14147399365901947 0.18674899637699127 -0.2714250087738037 0.5068749785423279 -0.0481100007891655 -0.07022999972105026 0.17868299782276154 0.00750300008803606 -0.05531800165772438 -0.2587659955024719 -0.22838400304317474 -0.22044099867343903 -0.24419699609279633 -0.2493409961462021 0.2387160062789917
in -0.005702999886125326 0.07338699698448181 0.13043999671936035 0.23292599618434906 0.3724150061607361 -0.1935500055551529 0.31503498554229736 0.12463100254535675 0.34662601351737976 0.11849900335073471 0.0903720036149025 -0.1744910031557083 -0.1519159972667694 0.22081199288368225 -0.01498700026422739 0.10525300353765488 0.2463739961385727 0.0026990000624209642 -0.030652999877929688 0.2060679942369461 0.13365599513053894 -0.17088699340820312 0.494378000497818 0.17909599840641022 0.1532440036535263
▁de 0.08769199997186661 -0.13809700310230255 0.14699499309062958 0.7791680097579956 -0.5536190271377563 -0.1290300041437149 0.6961560249328613 -0.6480680108070374 -0.15730400383472443 -0.11228200048208237 0.7068819999694824 0.11254599690437317 -0.24017299711704254 -0.5161640048027039 0.959788978099823 -0.8206179738044739 -0.8362579941749573 -1.3316359519958496 -0.1361760050058365 -0.733551025390625 -0.22179000079631805 0.10778599977493286 -0.029548000544309616 -0.02163200080394745 0.06796000152826309
00 0.5220800042152405 0.3649510145187378 0.9286860227584839 0.2687549889087677 0.12162400037050247 -0.06200199946761131 -0.03829900175333023 1.090994954109192 -0.9909350275993347 -0.46715599298477173 0.12115400284528732 -1.0949870347976685 0.5107110142707825 0.7363150119781494 -1.544679045677185 -0.505545973777771 -0.745477020740509 1.6238839626312256 0.8256739974021912 0.5361520051956177 -0.3579519987106323 0.45899999141693115 -0.8850359916687012 0.617438018321991 -1.8339359760284424
or -0.027525000274181366 0.03843599930405617 0.135452002286911 -0.21366900205612183 0.4540889859199524 -0.08418300002813339 0.2935679852962494 0.19547900557518005 0.6006180047988892 0.5214809775352478 0.2153259962797165 -0.042073000222444534 0.05509699881076813 0.038224998861551285 0.32727599143981934 0.02356100082397461 0.28733599185943604 -0.14578500390052795 -0.0899759978055954 0.18861199915409088 -0.24994200468063354 0.19592200219631195 0.8749970197677612 0.3045690059661865 -0.35155901312828064
▁h 0.429751992225647 -0.1949719935655594 -0.33608299493789673 0.03378399834036827 0.33326101303100586 -0.30074599385261536 0.6120960116386414 -0.18025000393390656 -0.17858000099658966 -0.12367299944162369 -0.014446999877691269 0.03883500024676323 -0.09892299771308899 -0.04362599924206734 0.07226800173521042 0.21436400711536407 0.14830900728702545 0.037363000214099884 -0.4440990090370178 0.10585399717092514 0.20512500405311584 -0.23127099871635437 -0.12550699710845947 -0.08274900168180466 0.28247499465942383
et -0.19568300247192383 -0.21266600489616394 0.14940300583839417 0.1515599936246872 -0.0051449998281896114 -0.13989099860191345 0.09038200229406357 -0.06328500062227249 0.5044829845428467 0.19118300080299377 0.09164699912071228 0.1213039979338646 0.149617001414299 0.17518599331378937 -0.06985100358724594 0.17028400301933289 0.34070101380348206 0.13830099999904633 0.15127800405025482 0.04695399850606918 0.06836400181055069 -0.20647400617599487 0.4611569941043854 0.34144699573516846 -0.2660290002822876
el 0.06640999764204025 -0.02891100011765957 0.0974150002002716 -0.02401999942958355 0.2349960058927536 -0.15074299275875092 0.5327029824256897 -0.21168400347232819 0.17722299695014954 0.39380499720573425 0.1812629997730255 0.3685680031776428 0.23555999994277954 0.5127959847450256 0.20675800740718842 0.2402839958667755 -0.20444299280643463 0.0477060005068779 -0.15342900156974792 -0.346109002828598 -0.12496799975633621 -0.2497429996728897 0.08063499629497528 0.21838100254535675 0.034070998430252075
st -0.05522000044584274 0.3738740086555481 -0.13052800297737122 -0.4696969985961914 -0.16103200614452362 -0.04788399860262871 -0.35632601380348206 -0.2406039983034134 0.033973999321460724 0.6980440020561218 0.057808998972177505 0.045242998749017715 0.10188700258731842 0.10164999961853027 -0.02085700072348118 0.48804399371147156 -0.3291870057582855 0.0649000033736229 0.1407880038022995 0.1211640015244484 0.05624699965119362 -0.05460000038146973 -0.14206799864768982 0.1982239931821823 0.6477280259132385
ij -0.2630139887332916 0.2302200049161911 -0.18935999274253845 0.1465039998292923 -0.06964199990034103 -0.1565220057964325 -0.3080829977989197 -0.5416539907455444 -0.2849229872226715 -0.020812999457120895 0.06236900016665459 -0.062268998473882675 -0.11389599740505219 0.021333999931812286 -0.3568510115146637 -0.013930999673902988 -0.3005090057849884 0.25020700693130493 -0.25719401240348816 -0.4373820126056671 0.17450900375843048 -0.35548099875450134 -0.7571920156478882 0.08786799758672714 0.41857901215553284
ch -0.18988899886608124 -0.1804479956626892 0.05525299906730652 0.10206399857997894 0.4949530065059662 0.19874000549316406 0.7566450238227844 0.44947800040245056 0.6868109703063965 0.3415609896183014 0.027139000594615936 -0.216729998588562 -0.17751100659370422 0.44560500979423523 0.6342350244522095 -0.00709300022572279 0.38609498739242554 0.12971100211143494 -0.26795101165771484 0.022252999246120453 0.175927996635437 0.11659099906682968 1.0339809656143188 0.1315629929304123 -0.20500800013542175
ar 0.06878799945116043 -0.2625109851360321 -0.14417900145053864 0.1470779925584793 0.8806769847869873 -0.0010900000343099236 0.5447959899902344 0.23492899537086487 0.6024320125579834 0.23238399624824524 0.17665700614452362 -0.14342300593852997 0.06003100052475929 0.01286299992352724 0.1841530054807663 -0.18705999851226807 0.20062600076198578 0.21290600299835205 -0.34486499428749084 -0.25389599800109863 -0.2172670066356659 -0.06236499920487404 0.7646629810333252 0.12266699969768524 -0.1625169962644577
▁w 0.24804799258708954 -0.34745100140571594 -0.3817560076713562 -0.2610729932785034 0.3767530024051666 -0.5400649905204773 0.3015710115432739 0.058754999190568924 -0.37056800723075867 -0.29843801259994507 0.3142240047454834 0.1666090041399002 -0.1349020004272461 0.016248000785708427 -0.5185949802398682 -0.06481099873781204 -0.3239000141620636 0.05900900065898895 -0.2725119888782501 0.045451998710632324 0.702131986618042 -0.3399049937725067 -0.2627609968185425 0.5752660036087036 -0.3497070074081421
▁b 0.13714200258255005 0.07006199657917023 -0.4200800061225891 -0.03534099832177162 0.5692600011825562 -0.059401001781225204 0.3630549907684326 0.017789000645279884 0.18753300607204437 -0.025332000106573105 0.06088000163435936 -0.14325200021266937 -0.0017930000321939588 0.157369002699852 0.32711198925971985 -0.1192839965224266 -0.08349700272083282 0.03169799968600273 -0.32420000433921814 -0.14106300473213196 -0.09625499695539474 -0.02411700040102005 0.046140000224113464 -0.0882439985871315 0.11990000307559967
▁o -0.03992500156164169 0.17216700315475464 -0.13795499503612518 0.26315900683403015 0.6850990056991577 0.28665000200271606 0.1804649978876114 0.17206600308418274 -0.0898130014538765 -0.03877200186252594 -0.20596900582313538 -0.26070600748062134 -0.13132299482822418 0.06506499648094177 -0.037376001477241516 0.12743699550628662 -0.5103390216827393 -0.1146330013871193 -0.1629209965467453 0.07004500180482864 0.1751990020275116 0.4113810062408447 0.14290599524974823 0.05083699896931648 0.34206700325012207
▁g 0.18708400428295135 -0.2693440020084381 -0.5962409973144531 0.0774340033531189 0.4537990093231201 -0.11999499797821045 0.14558100700378418 0.11893700063228607 0.07559199631214142 -0.20704199373722076 -0.08062899857759476 0.0980369970202446 -0.1312119960784912 0.16085299849510193 0.03016600012779236 0.10972099751234055 0.18366600573062897 0.23218899965286255 -0.4880770146846771 0.18976299464702606 0.02382900007069111 -0.4130589962005615 0.11841999739408493 0.03106899932026863 0.0005799999926239252
▁van 0.11021199822425842 0.05421900004148483 0.4338679909706116 0.25860700011253357 -0.36456000804901123 -0.6175649762153625 0.47129300236701965 -0.19933900237083435 -0.08186499774456024 -0.3685680031776428 0.542900025844574 -0.02967200055718422 -0.07502000033855438 -0.2902730107307434 0.7023419737815857 -0.47189998626708984 -0.7399560213088989 -0.8134300112724304 -0.42470601201057434 -0.8106579780578613 -0.41576001048088074 0.2012699991464615 -0.15798500180244446 -0.09457200020551682 0.44936200976371765
▁e -0.14684200286865234 -0.09239199757575989 -0.04879099875688553 -0.0072570000775158405 0.04280399903655052 -0.31511300802230835 0.41869500279426575 0.2797499895095825 -0.055991001427173615 0.0765179991722107 0.12614800035953522 -0.18501299619674683 -0.19781099259853363 0.07195399701595306 0.31494200229644775 -0.012117999605834484 0.24178700149059296 -0.16171899437904358 -0.39907199144363403 0.09876000136137009 0.14421400427818298 -0.14396800100803375 0.04301299899816513 0.11323600262403488 -0.1609330028295517
▁m 0.2704089879989624 -0.055681999772787094 -0.1456339955329895 0.2037689983844757 0.3140619993209839 -0.17348599433898926 0.3417389988899231 0.6054499745368958 0.15663500130176544 -0.03209599852561951 -0.4469659924507141 0.1770540028810501 0.029611999168992043 0.23232300579547882 -0.016589999198913574 0.2648009955883026 0.20209500193595886 -0.11492999643087387 -0.12074799835681915 0.16279099881649017 -0.3328549861907959 0.12110699713230133 -0.05503999814391136 0.30077099800109863 -0.08728300034999847
▁t 0.23104000091552734 -0.04471199959516525 -0.3237920105457306 0.14859700202941895 0.17003799974918365 -0.06185699999332428 0.21621499955654144 0.3753589987754822 0.13140900433063507 -0.17214299738407135 0.018192000687122345 0.013159000314772129 0.16577599942684174 -0.23869800567626953 -0.05226600170135498 -0.341154009103775 0.36038801074028015 0.09641300141811371 0.11977899819612503 0.11063600331544876 -0.2889299988746643 0.1740259975194931 0.13076399266719818 0.17541100084781647 0.0511149987578392
▁in 0.2217389941215515 0.37049299478530884 -0.21658200025558472 0.38330501317977905 -0.7439879775047302 -0.22501400113105774 -0.3298560082912445 0.39034199714660645 -0.46827301383018494 -0.357122004032135 0.6492310166358948 0.01039700023829937 -0.561680018901825 -0.5785509943962097 0.3508799970149994 -0.3405640125274658 -0.9377620220184326 -0.6378650069236755 -0.5012940168380737 0.3281170129776001 -0.23529499769210815 0.20131300389766693 0.11641799658536911 0.15414099395275116 0.6357700228691101
ie -0.24012599885463715 -0.2617340087890625 -0.03414800018072128 -0.3879689872264862 -0.03235200047492981 -0.15912899374961853 -0.44991299510002136 -0.38242098689079285 0.22332799434661865 0.12663500010967255 0.38398000597953796 -0.2624639868736267 -0.027096999809145927 -0.21122600138187408 0.38255199790000916 0.03488700091838837 0.07041099667549133 -0.22161300480365753 0.10224500298500061 -0.005446999799460173 0.029753999784588814 -0.17133300006389618 0.05095899850130081 -0.5018060207366943 0.04361100122332573
al -0.03555100038647652 -0.14730699360370636 0.21157799661159515 0.16110099852085114 0.3271920084953308 -0.17731599509716034 0.3133400082588196 0.12071000039577484 0.2747989892959595 0.37327900528907776 0.2545669972896576 -0.13551700115203857 -0.024003999307751656 -0.428737998008728 -0.12787200510501862 -0.03970399871468544 0.6071109771728516 -0.5115650296211243 0.11696899682283401 0.4581040143966675 -0.536728024482727 0.14752599596977234 0.5683259963989258 0.3247480094432831 -0.23800300061702728
at -0.14723199605941772 0.09916500002145767 0.34824898838996887 -0.012419000267982483 0.3292360007762909 0.034070998430252075 0.32360100746154785 0.16090700030326843 0.7051010131835938 0.23731400072574615 -0.1681790053844452 -0.2627289891242981 -0.23722399771213531 0.082737997174263 0.41308701038360596 -0.5313460230827332 0.6678779721260071 -0.16238200664520264 0.13879899680614471 0.30639299750328064 -0.33011600375175476 0.6483780145645142 0.8472200036048889 0.2618499994277954 -0.1910730004310608
is -0.3250269889831543 0.023347999900579453 0.3932810127735138 -0.1263200044631958 0.4127250015735626 0.1445010006427765 0.6168360114097595 0.04797700047492981 0.34412699937820435 0.343733012676239 -0.04502499848604202 -0.3927929997444153 -0.030903000384569168 0.2629989981651306 0.509253978729248 -0.19518199563026428 0.6835860013961792 -0.2611750066280365 -0.05295100063085556 0.042660001665353775 0.17062599956989288 -0.12648099660873413 0.6203889846801758 -0.12642599642276764 -0.3421989977359772
▁00 0.4939329922199249 0.9050989747047424 1.27993905544281 0.4591439962387085 -0.2908239960670471 0.503607988357544 -0.17183999717235565 1.0971479415893555 -1.186007022857666 -1.036399006843567 -0.25683799386024475 -0.7773200273513794 0.1384589970111847 0.4767119884490967 -0.6870539784431458 0.15637899935245514 -1.430111050605774 0.4154919981956482 0.4052070081233978 0.14716799557209015 -0.9115260243415833 0.8560130000114441 -0.6142160296440125 -0.39380499720573425 -1.2895400524139404
oor 0.10646200180053711 0.12206000089645386 -0.1905220001935959 -0.2535969913005829 -0.1476060003042221 0.10834900289773941 -0.261898010969162 -0.46488699316978455 -0.6472619771957397 0.4107779860496521 0.29470300674438477 0.5119799971580505 -0.009305999614298344 0.1526239961385727 -0.3801040053367615 -0.31141000986099243 -0.7053030133247375 0.1355780065059662 -0.16037799417972565 -0.018857000395655632 0.23632700741291046 -0.08343300223350525 -0.37083399295806885 0.07822000235319138 0.3116540014743805
on 0.0954350009560585 -0.14459200203418732 0.07917699962854385 -0.11768200248479843 0.4763599932193756 -0.17493000626564026 0.8131160140037537 0.7071750164031982 0.28405600786209106 -0.100040003657341 0.1846349984407425 0.2863219976425171 -0.02742299996316433 0.11760199815034866 0.03242100030183792 -0.38187500834465027 0.49014100432395935 -0.1325020045042038 -0.019169000908732414 -0.06093500182032585 0.15625900030136108 -0.029371999204158783 0.8568980097770691 -0.20012299716472626 -0.08791299909353256
'' 0.5021880269050598 -0.20126600563526154 0.1384900063276291 -0.1371379941701889 1.0292140245437622 0.5970169901847839 1.165774941444397 -0.08558200299739838 1.0671050548553467 -0.28761300444602966 -0.15144599974155426 -0.7753289937973022 0.6338250041007996 -0.12199600040912628 0.8277609944343567 0.35183098912239075 0.8458359837532043 0.20912399888038635 0.8414040207862854 -0.290241003036499 0.6881809830665588 0.41043800115585327 0.8971700072288513 0.32759198546409607 -1.1231310367584229
▁s -0.07946600019931793 -0.19652999937534332 -0.2853580117225647 0.21657800674438477 0.4898259937763214 0.2467299997806549 0.5836319923400879 0.2950400114059448 0.12123499810695648 0.20781399309635162 0.026265999302268028 -0.17104700207710266 -0.1850070059299469 0.11242300271987915 0.18978099524974823 -0.16814200580120087 0.38503700494766235 -0.10184700042009354 -0.07438299804925919 0.2134159952402115 -0.13142800331115723 0.05246099829673767 0.5401089787483215 0.16944299638271332 -0.2812440097332001
▁het 0.42736300826072693 -0.4707629978656769 -0.17706799507141113 0.5752210021018982 -1.563688039779663 -0.33671998977661133 -0.20203900337219238 0.24657000601291656 -0.44632500410079956 -0.1657640039920807 0.678650975227356 0.25463899970054626 -0.564083993434906 -0.7968180179595947 0.46645501255989075 -0.0734110027551651 -1.017166018486023 -0.8023999929428101 -0.6007360219955444 0.5777360200881958 -0.0757799968123436 0.6445519924163818 0.16693200170993805 0.24114100635051727 0.8407930135726929
it -0.5105730295181274 -0.12078700214624405 0.24933399260044098 -0.18863099813461304 0.4507560133934021 -0.2175620049238205 -0.07349000126123428 -0.014173000119626522 0.4257740080356598 -0.10569900274276733 0.06719899922609329 -0.3167940080165863 -0.23823000490665436 -0.15155400335788727 0.21020300686359406 0.12582799792289734 0.30195099115371704 -0.4481459856033325 0.14846600592136383 -0.12883299589157104 -0.21941900253295898 -0.1914760023355484 0.4800429940223694 -0.1689620018005371 -0.29829901456832886
▁n 0.41516900062561035 -0.17041100561618805 -0.13944099843502045 0.49456700682640076 0.4257040023803711 0.15255999565124512 0.07067599892616272 -0.21856500208377838 -0.12990300357341766 -0.0904569998383522 -0.3376150131225586 -0.18998600542545319 -0.313495010137558 -0.10572200268507004 0.12853899598121643 0.273157000541687 0.035273000597953796 0.12272100150585175 -0.22385799884796143 0.5614889860153198 -0.19415800273418427 0.2575390040874481 0.07078900188207626 0.1225539967417717 -0.4453369975090027
▁z 0.12460500001907349 -0.14489899575710297 -0.3454500138759613 0.0685570016503334 -0.0782649964094162 0.19866600632667542 0.13642099499702454 -0.20609000325202942 -0.19939100742340088 -0.11539699882268906 -0.28617599606513977 0.7195780277252197 -0.08725900202989578 0.21535800397396088 -0.44924700260162354 -0.01373900007456541 -0.08137000352144241 -0.14319199323654175 -0.19609899818897247 -0.32000601291656494 -0.031177999451756477 -0.21798300743103027 -0.29145199060440063 0.1444219946861267 0.6336449980735779
▁een -0.25087299942970276 -0.2550249993801117 0.33532899618148804 0.6526259779930115 -0.37471601366996765 1.08952796459198 0.49010100960731506 -0.7935640215873718 0.01358800008893013 0.12544000148773193 -0.1197889968752861 0.3771679997444153 0.32585400342941284 -0.2505359947681427 0.47850900888442993 0.12791100144386292 -0.49761098623275757 -1.4186450242996216 0.8198760151863098 -0.4346800148487091 -0.11488199979066849 0.5248249769210815 -0.1849830001592636 -0.458173006772995 -0.2934440076351166
▁en 0.052841998636722565 -0.22004500031471252 0.16949500143527985 0.08725100010633469 -0.7368119955062866 0.083685003221035 0.19988900423049927 -0.15360799431800842 -0.9558110237121582 -0.08498500287532806 -0.2607870101928711 0.11459200084209442 -0.28248700499534607 -0.17325200140476227 0.052967000752687454 0.3885819911956787 0.11568299680948257 -0.38043999671936035 -0.028429999947547913 0.10659000277519226 -0.17717799544334412 0.28774499893188477 -0.42139101028442383 -0.5659199953079224 0.11300799995660782
de -0.09681300073862076 -0.13051199913024902 -0.09923999756574631 0.3507770001888275 -0.6729000210762024 0.04267499968409538 0.20698900520801544 -0.5909799933433533 -0.31180500984191895 0.011679000221192837 0.3594590127468109 -0.13263900578022003 -0.015093999914824963 0.46296700835227966 -0.09146200120449066 -0.21794599294662476 0.006016999948769808 0.24687400460243225 0.6320040225982666 0.019352000206708908 0.3248179852962494 0.002675000112503767 -0.3466069996356964 -0.4165729880332947 -0.003647000063210726
▁k -0.008712000213563442 0.04315600171685219 -0.38292500376701355 -0.010979999788105488 0.4629890024662018 0.04642200097441673 0.4541090130805969 -0.25320199131965637 -0.16209499537944794 -0.21830299496650696 -0.004052999895066023 0.38935399055480957 -0.475178986787796 0.14772899448871613 -0.7153890132904053 -0.3446510136127472 -0.2635610103607178 -0.28390198945999146 -0.18280300498008728 -0.3392699956893921 -0.19598199427127838 -0.0275650005787611 0.045037999749183655 0.34197598695755005 0.3371970057487488
am 0.192904993891716 0.03614800050854683 -0.1486770063638687 -0.2293740063905716 0.7633090019226074 -0.17496399581432343 0.3049260079860687 0.4639799892902374 0.05436599999666214 0.34658700227737427 0.2952679991722107 0.14749200642108917 0.39144301414489746 -0.7420380115509033 -0.45697399973869324 0.06492199748754501 0.28873899579048157 -0.12114600092172623 -0.11848899722099304 0.2604820132255554 -0.14979200065135956 0.029169000685214996 0.4058170020580292 -0.0012829999905079603 0.19074800610542297
▁0000 0.9678869843482971 0.71567702293396 0.2091190069913864 0.20759199559688568 -0.7487360239028931 0.055642999708652496 -0.052581001073122025 1.7853169441223145 -0.6102129817008972 -1.1688220500946045 0.7698400020599365 -0.8950629830360413 -0.75136798620224 -0.14363199472427368 -0.06680700182914734 0.5582190155982971 -1.52388596534729 0.31942299008369446 -0.5485699772834778 0.15151800215244293 -0.5096189975738525 0.2580470144748688 0.8499050140380859 -0.21068699657917023 -0.5518400073051453
▁p -0.1475220024585724 -0.13247300684452057 0.08277100324630737 0.3757320046424866 0.5259010195732117 -0.03411899879574776 0.30486300587654114 0.28490200638771057 0.3514400124549866 0.0010629999451339245 -0.15075600147247314 -0.15122899413108826 -0.2558709979057312 0.3723689913749695 0.1259080022573471 -0.20902800559997559 0.28205299377441406 -0.12048699706792831 0.048457998782396317 0.16570399701595306 -0.2715269923210144 -0.15374800562858582 0.4764530062675476 -0.13160200417041779 -0.0744590014219284
▁l 0.20248499512672424 -0.004104999825358391 -0.263824999332428 0.4075709879398346 0.47600600123405457 -0.10692600160837173 0.5237929821014404 0.07889500260353088 0.16335299611091614 -0.1349789947271347 0.014928000047802925 -0.08958400040864944 0.2582870125770569 -0.1481419950723648 0.1948380023241043 -0.26517900824546814 0.04040300101041794 -0.2095710039138794 -0.5181390047073364 -0.1509159952402115 0.01977499946951866 -0.26356199383735657 -0.13468900322914124 0.05689200013875961 0.06308600306510925
▁ge -0.033291999250650406 -0.32389798760414124 0.4313589930534363 -0.42398500442504883 -0.8397259712219238 -0.1454010009765625 -0.547435998916626 -0.40514299273490906 -0.22549299895763397 0.3259440064430237 -0.07165800034999847 0.6767510175704956 -0.2059510052204132 0.5658469796180725 -0.0006370000191964209 0.14321699738502502 -0.6338909864425659 -0.07450299710035324 -0.0015010000206530094 0.2685509920120239 0.14786599576473236 -0.29420000314712524 -0.3392930030822754 0.09111200273036957 -0.29026201367378235
▁a -0.028044000267982483 0.03447100147604942 0.10150899738073349 0.1347000002861023 0.46723100543022156 -0.22563700377941132 -0.020465999841690063 0.3540099859237671 -0.00886599998921156 -0.18047499656677246 0.1861030012369156 -0.2096630036830902 0.07041200250387192 -0.29365599155426025 -0.2649109959602356 0.210998997092247 0.18294799327850342 -0.07427000254392624 -0.045058999210596085 0.2106200009584427 -0.1523600071668625 -0.12759199738502502 0.272163987159729 -0.004738999996334314 -0.2965260148048401
ro 0.33452799916267395 -0.20525099337100983 -0.07940500229597092 0.013983000069856644 0.19671499729156494 0.3394559919834137 0.12881100177764893 0.13052399456501007 0.5878279805183411 0.1925559937953949 0.19582000374794006 0.28721898794174194 0.2937299907207489 0.3021489977836609 0.03383899852633476 -0.2032870054244995 0.16034899652004242 0.23928700387477875 0.2898919880390167 0.2095869928598404 -0.6711909770965576 0.15880799293518066 0.4177300035953522 0.05926400050520897 0.14891000092029572
re -0.22936700284481049 -0.18343199789524078 -0.11884699761867523 -0.11557099968194962 0.06228499859571457 0.11980299651622772 -0.20758099853992462 0.34255099296569824 0.15619400143623352 0.4411439895629883 0.3361639976501465 0.12727099657058716 0.25909900665283203 0.3424780070781708 0.5683450102806091 0.27846699953079224 0.11045700311660767 0.21591000258922577 0.05772799998521805 0.000838999985717237 -0.16154299676418304 -0.3312920033931732 0.12061300128698349 -0.24913999438285828 -0.04487000033259392
aar -0.06779199838638306 0.4132139980792999 0.019015999510884285 -0.40689799189567566 -0.2045920044183731 0.05085600167512894 -0.3883169889450073 -0.2910830080509186 -0.1824290007352829 -0.366023987531662 -0.27918800711631775 0.41854599118232727 0.12015099823474884 0.029848000034689903 -0.6651989817619324 0.1747789978981018 -0.35954800248146057 0.154121994972229 0.21111899614334106 -0.7559919953346252 0.18407000601291656 -0.26802000403404236 -0.4463210105895996 0.11464899778366089 0.4128139913082123
ig 0.20070500671863556 -0.4066930115222931 0.014473999850451946 -0.18523600697517395 -0.14752399921417236 -0.5793730020523071 0.1627510040998459 -1.0265389680862427 0.2960889935493469 0.30253198742866516 0.2988460063934326 0.3165920078754425 -0.07243800163269043 0.1823740005493164 0.1044130027294159 -0.020069999620318413 0.1205340027809143 -0.006943999789655209 0.17736700177192688 0.3233419954776764 0.3675670027732849 0.127702996134758 0.009793000295758247 -0.05897299945354462 -0.23868100345134735
der 0.059585001319646835 0.31294700503349304 -0.2229209989309311 -0.5303000211715698 0.07234899699687958 -0.21108600497245789 0.0020779999904334545 -0.41183900833129883 -0.06106099858880043 0.007240999955683947 -0.05171699821949005 0.04861300066113472 -0.21939800679683685 0.0391790010035038 -0.04537300020456314 0.28491300344467163 -0.21198099851608276 -0.024051999673247337 -0.2519730031490326 -0.3267500102519989 0.555312991142273 -0.26408201456069946 -0.25660398602485657 -0.12319699674844742 0.2366500049829483
ing 0.1757420003414154 -0.23878200352191925 -0.21414199471473694 -0.7297710180282593 -0.040414001792669296 -0.5312610268592834 -0.4569079875946045 -0.19939599931240082 0.08402600139379501 -0.00999400019645691 0.22437499463558197 0.27137601375579834 -0.0414079986512661 0.21918000280857086 -0.07568100094795227 -0.0724409967660904 -0.6203439831733704 0.037905000150203705 -0.0038560000248253345 0.1930219978094101 0.2015260010957718 -0.22336000204086304 -0.4182330071926117 0.43108999729156494 0.05376200005412102
▁( 0.38673698902130127 -0.04275500029325485 0.676891028881073 -0.324506014585495 0.2603060007095337 0.19005699455738068 0.49508100748062134 -0.6903449892997742 0.9242979884147644 0.041627999395132065 0.38853999972343445 -0.5101940035820007 0.7562670111656189 -0.6324449777603149 0.3571839928627014 0.10981900244951248 -0.1940069943666458 1.061614990234375 -0.24161000549793243 -1.5010420083999634 -0.5212380290031433 0.9537739753723145 0.4422779977321625 0.7422670125961304 -1.1013120412826538
den -0.20000700652599335 0.14608800411224365 -0.06440000236034393 -0.2276020050048828 -0.2990170121192932 -0.008604000322520733 0.02136800065636635 -0.6343759894371033 -0.6793469786643982 -0.14850099384784698 -0.15789100527763367 0.3234260082244873 -0.3494090139865875 0.23546800017356873 -0.5431069731712341 -0.0484439991414547 -0.017754999920725822 -0.1959889978170395 -0.20969000458717346 -0.27285701036453247 0.49790701270103455 -0.4542649984359741 -0.6018099784851074 -0.21086500585079193 0.39216598868370056
il 0.083685003221035 0.06265900284051895 0.39137300848960876 0.020966000854969025 0.7558590173721313 -0.26283299922943115 0.7380200028419495 0.00021600000036414713 0.2602959871292114 0.3319909870624542 -0.02660300023853779 -0.020129000768065453 -0.12400499731302261 0.3730739951133728 0.11945799738168716 -0.26391300559043884 0.051927000284194946 -0.10834799706935883 -0.392987996339798 -0.1574539989233017 -0.08450599759817123 0.09021200239658356 0.5688890218734741 -0.11198899894952774 0.09141500294208527
▁c 0.06046200171113014 -0.2097409963607788 0.5133190155029297 0.4068329930305481 0.5720149874687195 -0.4850519895553589 0.4956449866294861 0.8472430109977722 0.24760299921035767 -0.1788019984960556 0.03501399978995323 -0.2638159990310669 0.2740879952907562 0.12964299321174622 0.5633940100669861 -0.5568450093269348 0.40653499960899353 -0.1522729992866516 -0.19211900234222412 0.47336798906326294 -0.5287370085716248 0.05405599996447563 0.3826189935207367 -0.1745380014181137 -0.4249880015850067
▁* -0.12585300207138062 0.38117900490760803 0.6149880290031433 -0.49923598766326904 1.011518955230713 -0.015073000453412533 0.603272020816803 1.01556396484375 -0.422325998544693 -0.1498969942331314 -0.48712998628616333 -0.9311739802360535 0.3418999910354614 -0.7164040207862854 -0.5580120086669922 0.6245790123939514 0.8325710296630859 0.7777510285377502 -0.8794749975204468 -0.6046680212020874 0.08497399836778641 -0.0064559997990727425 0.3415690064430237 -0.14151999354362488 -1.1071850061416626
▁is 0.48002898693084717 -0.548675000667572 0.7062429785728455 0.8826689720153809 -0.8285160064697266 0.5323960185050964 0.6885340213775635 -0.03511799871921539 0.7650859951972961 -0.07497400045394897 -0.15218299627304077 0.31386899948120117 0.14474299550056458 -0.3835969865322113 1.1152880191802979 0.5136749744415283 -0.9731370210647583 -1.0690040588378906 -0.03528600186109543 -0.8007550239562988 -0.40432998538017273 0.9666020274162292 0.7972729802131653 0.8391749858856201 -0.13813099265098572
▁op 0.027338000014424324 0.02937299944460392 0.17803999781608582 0.05962799862027168 -0.6908550262451172 0.369361013174057 -0.5096859931945801 0.1828330010175705 -0.8281649947166443 -0.18504099547863007 0.00072900002123788 0.54482102394104 -0.04255500063300133 0.5522549748420715 0.02262900024652481 -0.01437699981033802 -1.1160789728164673 -0.5590890049934387 0.3224410116672516 0.35786399245262146 -0.16955499351024628 -0.024393999949097633 -0.5707119703292847 -0.39389699697494507 -0.2466920018196106
▁be -0.24956899881362915 -0.2592160105705261 -0.19470499455928802 -0.6233159899711609 -0.3100320100784302 -0.22402800619602203 -0.11335299909114838 -0.20880399644374847 -0.33993300795555115 0.13182500004768372 -0.2185720056295395 0.4794729948043823 -0.020085999742150307 0.6194869875907898 0.3820360004901886 -0.08680400252342224 -0.45727500319480896 -0.48840200901031494 -0.0477369986474514 -0.3531230092048645 -0.04603099822998047 -0.3414210081100464 -0.8694909811019897 0.03410600125789642 0.11416299641132355
erd -0.038346998393535614 -0.14790399372577667 -0.05482200160622597 0.1867150068283081 -0.14709100127220154 -0.08278299868106842 -0.654558002948761 -0.15877999365329742 0.3077549934387207 -0.00774900009855628 -0.23941799998283386 0.5998960137367249 -0.12533700466156006 0.4477649927139282 -0.12984800338745117 0.30254098773002625 -0.540552020072937 -0.06384900212287903 0.1259640008211136 0.4372049868106842 0.09876800328493118 -0.39543500542640686 -0.28348100185394287 -0.3243370056152344 0.4017789959907532
▁f -0.2626760005950928 -0.13924400508403778 -0.24508999288082123 0.048367999494075775 0.6172080039978027 -0.42312300205230713 0.06149100139737129 0.6432279944419861 0.16373099386692047 0.2995319962501526 0.1547590047121048 -0.26690199971199036 -0.20673500001430511 0.2767379879951477 0.1379999965429306 0.33359500765800476 0.461760014295578 -0.1082959994673729 -0.1378999948501587 0.47589901089668274 0.18115900456905365 -0.4625360071659088 0.43323200941085815 0.3447999954223633 -0.3455680012702942
▁'' 0.2639319896697998 0.03784000128507614 -0.10217799991369247 -0.037227001041173935 0.3651669919490814 0.8184170126914978 0.3963890075683594 0.2991810142993927 0.9308080077171326 -0.24248099327087402 0.1407099962234497 -0.7728610038757324 0.6983039975166321 -0.6618289947509766 0.8072599768638611 0.2820200026035309 1.066838026046753 0.5419390201568604 0.6271589994430542 -0.23256699740886688 0.6990659832954407 0.7104009985923767 1.190533995628357 0.5491030216217041 -1.0210429430007935
ol -0.015224000439047813 0.3032119870185852 0.16113300621509552 -0.2148739993572235 0.8113340139389038 0.05881800130009651 0.4246079921722412 0.11806199699640274 0.47827601432800293 0.4636029899120331 -0.0521869994699955 -0.1360979974269867 -0.09958600252866745 0.19762100279331207 0.03916800022125244 -0.22252200543880463 0.2840299904346466 -0.023236000910401344 -0.24679699540138245 0.20707499980926514 -0.07026299834251404 0.3153719902038574 0.8517150282859802 -0.061514001339673996 0.1280529946088791
le -0.14639799296855927 -0.11593800038099289 0.031380001455545425 -0.006151000037789345 0.047283999621868134 -0.10147999972105026 0.11379300057888031 0.16072900593280792 0.02912599965929985 0.33965298533439636 0.3079259991645813 0.13979099690914154 0.3850730061531067 0.3064799904823303 0.2934829890727997 0.15800200402736664 0.18944400548934937 0.07446099817752838 -0.04827599972486496 0.21837100386619568 0.38017600774765015 -0.4903259873390198 0.20420700311660767 -0.23745499551296234 -0.17357799410820007
ijk 0.10448899865150452 0.5385980010032654 -0.10349900275468826 -0.1324950009584427 0.07946400344371796 -0.08144500106573105 -0.18241000175476074 -0.4522410035133362 -0.3506090044975281 -0.13537099957466125 -0.5328699946403503 -0.027039000764489174 0.11297599971294403 -0.05596800148487091 -0.031394001096487045 0.22029100358486176 -0.3841499984264374 0.3296709954738617 -0.24011799693107605 0.036215998232364655 0.6191319823265076 0.3117600083351135 -1.0128940343856812 -0.5005689859390259 1.3649170398712158
uit 0.11651299893856049 0.4891960024833679 -0.42289701104164124 -0.24576100707054138 0.05994800105690956 0.021277999505400658 -0.24743199348449707 -0.33298400044441223 -0.1832759976387024 0.4613560140132904 0.09999600052833557 0.41850200295448303 0.3980270028114319 0.13049699366092682 0.0980449989438057 -0.08359599858522415 -0.3910599946975708 0.16020099818706512 -0.09802400320768356 -0.25759801268577576 -0.24797099828720093 -0.08873199671506882 -0.44887399673461914 0.3683440089225769 0.2053080052137375
▁voor 0.4791330099105835 -0.290149986743927 -0.014124000445008278 0.539264976978302 -1.6223499774932861 -0.8478639721870422 -0.44275298714637756 0.1682180017232895 0.07582999765872955 -0.41239601373672485 0.6366990208625793 0.4462980031967163 -0.6742309927940369 -0.7476180195808411 0.09429100155830383 0.3379319906234741 -0.5396860241889954 -0.47387200593948364 -0.5954040288925171 0.06875500082969666 -0.4713450074195862 -0.2504290044307709 0.3172850012779236 0.7003970146179199 0.5192610025405884
ra -0.12248600274324417 -0.14186899363994598 0.18748299777507782 0.10480699688196182 0.2833150029182434 0.21753600239753723 0.14803500473499298 -0.047749001532793045 0.4651559889316559 0.5272070169448853 0.224590003490448 -0.10650999844074249 -0.03209200128912926 0.2426609992980957 0.023996999487280846 -0.00901699997484684 -0.053720999509096146 0.14129599928855896 -0.12330099940299988 0.033854998648166656 -0.19435100257396698 0.07387799769639969 0.5166850090026855 0.1673250049352646 0.3300209939479828
cht 0.04475000128149986 0.046971000730991364 -0.2887359857559204 -0.0867680013179779 -0.3944239914417267 0.10256300121545792 -0.0069149998016655445 -0.8843989968299866 -0.24682199954986572 -0.29910600185394287 0.19248700141906738 0.4863330125808716 0.027950000017881393 0.3452329933643341 -0.047832999378442764 -0.6686519980430603 -0.4243830144405365 -0.05738399922847748 0.1669909954071045 -0.34086599946022034 0.6156650185585022 -0.36716699600219727 -0.4525589942932129 -0.37820300459861755 0.11125899851322174
id 0.5135239958763123 0.36285400390625 0.30002298951148987 -0.35029900074005127 0.1318410038948059 -0.5602459907531738 0.17445099353790283 -0.32568100094795227 0.449862003326416 0.26286500692367554 0.01844399981200695 0.08867599815130234 -0.05700000002980232 -0.13550199568271637 0.3724740147590637 -0.19864000380039215 0.09064000099897385 0.15145599842071533 -0.4631060063838959 0.12276499718427658 -0.2369379997253418 0.2335129976272583 0.22561100125312805 0.17068399488925934 -0.30161601305007935
and 0.06706500053405762 -0.2426220029592514 -0.2960349917411804 0.1138399988412857 0.288222998380661 -0.24998800456523895 0.009587000124156475 -0.23309500515460968 -0.03734000027179718 0.12226299941539764 0.16585400700569153 0.24468399584293365 0.061174001544713974 0.07129999995231628 -0.023183999583125114 0.17336900532245636 -0.18854500353336334 0.02360999956727028 -0.19580499827861786 0.19853700697422028 -0.07604900002479553 -0.10760000348091125 -0.2738490104675293 0.19956199824810028 0.27782800793647766
▁st -0.1292569935321808 0.24066799879074097 -0.47824400663375854 -0.19520999491214752 -0.10216200351715088 -0.3302200138568878 0.06790699809789658 -0.10178600251674652 -0.09484700113534927 0.06342999637126923 -0.27851900458335876 -0.08576499670743942 -0.2959670126438141 0.5366330146789551 0.09988299757242203 0.07113800197839737 -0.2959429919719696 -0.4605720043182373 0.4497160017490387 0.22259700298309326 -0.09010499715805054 0.27333301305770874 -0.30896198749542236 0.30091699957847595 0.2695539891719818
ge 0.18707899749279022 0.36907100677490234 0.0022269999608397484 -0.4255329966545105 -0.376895010471344 -0.15393300354480743 -0.36215999722480774 -0.16637499630451202 0.14343899488449097 0.17677000164985657 0.23538200557231903 0.5111039876937866 0.43715301156044006 0.1719760000705719 0.3176249861717224 0.011354000307619572 -0.39576399326324463 0.43315601348876953 -0.21688500046730042 -0.08522900193929672 0.4619249999523163 -0.26537299156188965 -0.290353000164032 0.12333299964666367 0.3499639928340912
▁ver 0.10891000181436539 0.09450499713420868 -0.48907899856567383 -0.2986209988594055 -0.7881690263748169 0.09545499831438065 -0.7381960153579712 -0.5913900136947632 -0.14779099822044373 -0.19978100061416626 -0.15390999615192413 0.7588329911231995 -0.21560199558734894 0.21989700198173523 0.03413200005888939 0.04812299832701683 -0.2930609881877899 0.05609000101685524 -0.022453000769019127 -0.033555999398231506 0.24658499658107758 -0.4116649925708771 -0.4559769928455353 -0.23788200318813324 0.08833000063896179
as 0.3213050067424774 0.060864001512527466 -0.3254910111427307 0.5401989817619324 0.6529390215873718 0.06806900352239609 0.7000839710235596 0.3083159923553467 0.5355949997901917 0.043508000671863556 0.0785989984869957 0.0068789999932050705 0.13151000440120697 0.17514899373054504 0.04021700099110603 -0.4602000117301941 0.3924599885940552 0.08556599915027618 0.01756400056183338 0.311845988035202 -0.21350499987602234 0.0676250010728836 0.7599949836730957 0.22835500538349152 -0.207163006067276
te -0.47714099287986755 -0.46347999572753906 0.41415199637413025 0.3684619963169098 -0.6338430047035217 0.29178500175476074 0.009770000353455544 0.38064900040626526 -0.14678700268268585 0.6873319745063782 0.017052000388503075 0.2919900119304657 0.43845999240875244 0.5948600172996521 0.7102580070495605 -0.08256799727678299 -0.2954390048980713 0.08928299695253372 -0.13307300209999084 0.0728050023317337 -0.2744089961051941 -0.060047999024391174 -0.39875298738479614 -0.15819300711154938 -0.13350099325180054
om 0.2567720115184784 0.20357400178909302 -0.011723999865353107 -0.2436089962720871 0.3261820077896118 -0.12732599675655365 0.4718030095100403 0.1365640014410019 0.6641610264778137 0.4488010108470917 -0.20199400186538696 0.3877809941768646 0.1417659968137741 0.12428399920463562 0.1344269961118698 -0.4051870107650757 0.28477999567985535 -0.3427940011024475 0.02515600062906742 0.2259249985218048 -0.1323619931936264 0.4582599997520447 0.6942840218544006 0.2996799945831299 0.06899400055408478
us 0.4045250117778778 -0.12266000360250473 0.6558629870414734 -0.3450179994106293 0.584729015827179 0.10245300084352493 1.0736819505691528 0.06592600047588348 0.4551140069961548 -0.15356899797916412 -0.017125999554991722 -0.31908899545669556 -0.23089699447155 0.36661699414253235 0.41405200958251953 0.2020999938249588 0.4735020101070404 -0.333406001329422 0.15832899510860443 0.2678380012512207 0.16287699341773987 0.47606799006462097 1.0835460424423218 -0.38416698575019836 -0.5885099768638611
sch 0.10286799818277359 0.775475025177002 -0.022686000913381577 -0.922851026058197 -0.09326499700546265 -0.3653329908847809 0.020704999566078186 0.13663800060749054 0.08320599794387817 0.15002399682998657 0.0558289997279644 0.09968700259923935 0.04737899824976921 0.21508899331092834 -0.020277999341487885 0.2997620105743408 -0.40345698595046997 0.327551007270813 -0.437734991312027 -0.8035910129547119 0.26161500811576843 -0.12436799705028534 -0.03125999867916107 -0.0989530012011528 0.8646339774131775
ot 0.40909600257873535 0.0883449986577034 -0.1697169989347458 -0.12198899686336517 0.4151720106601715 -0.2163970023393631 0.5349019765853882 -0.15501999855041504 0.6913149952888489 0.2335290014743805 0.22870999574661255 0.1616470068693161 0.1307390034198761 0.3327159881591797 -0.0027310000732541084 -0.2468869984149933 0.2000579982995987 -0.005874999798834324 0.36952900886535645 0.18946300446987152 0.044144000858068466 0.27553001046180725 0.7286880016326904 0.5303570032119751 -0.2249089926481247
ur -0.010045000351965427 -0.3008919954299927 0.05671500042080879 0.017534999176859856 0.45284900069236755 -0.20849700272083282 0.37328800559043884 0.4102970063686371 0.15967999398708344 0.22624999284744263 0.44561100006103516 -0.12778699398040771 0.3965030014514923 -0.02220899984240532 0.29550701379776 0.14382299780845642 0.496396005153656 0.0058559998869895935 -0.1890220046043396 0.007565000094473362 -0.1523510068655014 -0.382845014333725 0.29919999837875366 -0.15207000076770782 -0.0767500028014183
la -0.10527700185775757 -0.17903099954128265 0.14817099273204803 0.1548060029745102 0.6746929883956909 0.18632499873638153 0.703898012638092 0.08173099905252457 0.5066329836845398 0.44743600487709045 0.33135101199150085 -0.21035300195217133 0.31092000007629395 0.39261698722839355 0.13826100528240204 0.023786000907421112 0.4595339894294739 0.19076800346374512 0.2154570072889328 -0.1893170028924942 -0.11444699764251709 -0.10745599865913391 0.6121529936790466 -0.022525999695062637 -0.08871900290250778
se -0.8516929745674133 0.09975499659776688 0.21627099812030792 -0.2854599952697754 0.09453800320625305 0.1280909925699234 -0.09273499995470047 -0.009332000277936459 -0.605970025062561 0.30648699402809143 0.7005850076675415 -0.4709550142288208 0.1418360024690628 -0.5365380048751831 0.0481330007314682 -0.1334269940853119 -0.0852930024266243 -0.1593180000782013 -0.45478498935699463 -0.270253986120224 0.59968501329422 -0.12761500477790833 0.19124199450016022 -0.5336909890174866 0.47010400891304016
▁al 0.42614999413490295 0.3353410065174103 -0.7385950088500977 0.27015799283981323 -0.13209199905395508 0.2954069972038269 0.02043999917805195 0.3947159945964813 -0.006364000029861927 -0.5809460282325745 -0.21360300481319427 0.2453480064868927 -0.011568999849259853 -0.16491399705410004 0.0015490000369027257 0.20307299494743347 0.15636199712753296 -0.1817850023508072 0.30462801456451416 0.34237098693847656 0.29315200448036194 -0.1249530017375946 0.15205200016498566 -0.07283200323581696 -0.2073190063238144
ee 0.22430600225925446 0.2493939995765686 -0.17952300608158112 -0.3979089856147766 0.2269890010356903 -0.3155660033226013 0.06779900193214417 -0.11016099900007248 -0.30006998777389526 -0.0881659984588623 0.12101399898529053 0.3653840124607086 0.42451798915863037 -0.014158000238239765 -0.1936960071325302 -0.2250639945268631 -0.3818430006504059 -0.38791099190711975 0.08367700129747391 -0.16736799478530884 0.2720699906349182 0.08774399757385254 -0.46571600437164307 0.46000200510025024 0.49421098828315735
gen 0.288349986076355 -0.20827999711036682 -0.3306350111961365 -0.13830700516700745 -0.395891010761261 -0.10376100242137909 0.08204399794340134 -1.1584500074386597 -0.07350800186395645 -0.09558600187301636 0.13663500547409058 0.24289099872112274 -0.2633109986782074 0.17191000282764435 0.0034020000603049994 -0.04955099895596504 -0.3630540072917938 0.1297529935836792 -0.1508689969778061 -0.1679539978504181 0.2975269854068756 -0.13037699460983276 -0.3729270100593567 -0.3309589922428131 0.2856830060482025
ic -0.12458600103855133 0.24717900156974792 0.40549901127815247 -0.23027700185775757 0.7004969716072083 -0.39889299869537354 0.24580499529838562 0.20401500165462494 0.6725580096244812 0.5282449722290039 0.24713100492954254 -0.007215999998152256 -0.46324700117111206 -0.019189000129699707 0.08976999670267105 -0.22840499877929688 1.0738199949264526 -0.6925870180130005 -0.04273800179362297 0.6114060282707214 -0.701878011226654 -0.12688300013542175 1.3934990167617798 0.013969000428915024 -0.9375190138816833
ijn 0.17803099751472473 0.6294950246810913 -0.11258099973201752 -0.2661370038986206 0.11223600059747696 0.3735800087451935 -0.1223210021853447 -0.2500610053539276 -0.2975119948387146 0.017326999455690384 -0.31837698817253113 0.23872999846935272 0.3278990089893341 -0.1638839989900589 -0.0022009999956935644 0.2893039882183075 -0.6254370212554932 0.1900389939546585 -0.03920000046491623 -0.0991709977388382 0.22154399752616882 0.2505519986152649 -0.7375349998474121 -0.2656710147857666 0.7220640182495117
▁uit 0.36851900815963745 0.22588799893856049 -0.18485699594020844 -0.18538199365139008 -0.5918009877204895 0.5461919903755188 0.975292980670929 -1.0706640481948853 0.02220899984240532 0.13616499304771423 0.5691109895706177 0.5034859776496887 0.5747720003128052 -0.3406499922275543 0.7563179731369019 -0.7109699845314026 -0.05733799934387207 -1.1729340553283691 0.9209439754486084 -0.8492590188980103 -0.7368069887161255 0.6492490172386169 -0.22565799951553345 -0.0351249985396862 -0.09120400249958038
▁j 0.356003999710083 -0.10494600236415863 -0.5381289720535278 0.07320400327444077 0.8969299793243408 0.09531199932098389 0.16092999279499054 0.6217740178108215 -0.1681780070066452 -0.29580000042915344 0.12162700295448303 0.12953299283981323 -0.2068050056695938 -0.1862179934978485 -0.5581539869308472 0.30613601207733154 0.04555400088429451 0.3495759963989258 -0.46731698513031006 -0.001753999968059361 -0.19427399337291718 -0.37366101145744324 0.652878999710083 -0.27893298864364624 -0.2912819981575012
ver -0.14654099941253662 0.09509799629449844 -0.04717100039124489 -0.6880670189857483 -0.049368999898433685 -0.25743699073791504 -0.5776540040969849 -0.10840199887752533 0.06990800052881241 -0.09520000219345093 0.2766200006008148 0.18325699865818024 0.7029659748077393 -0.22599199414253235 -0.06460099667310715 0.26724401116371155 0.10290499776601791 0.378726989030838 0.2371540069580078 -0.6640409827232361 0.13286499679088593 -0.5683619976043701 -0.5373029708862305 0.08733300119638443 0.1304830014705658
oe 0.06794100254774094 -0.1937980055809021 -0.023134000599384308 -0.19973599910736084 0.11130400002002716 0.06840000301599503 -0.14968399703502655 -0.7598040103912354 0.5761340260505676 -0.6016520261764526 -0.132874995470047 0.3746120035648346 0.005239000078290701 0.03951599821448326 -0.08803600072860718 -0.24963699281215668 -0.38736099004745483 -0.1008630022406578 0.17449699342250824 -0.5636550188064575 0.3928520083427429 -0.26082900166511536 0.016594000160694122 0.4357199966907501 0.35461699962615967
▁te 0.010515999980270863 0.07080800086259842 -0.438414990901947 0.11697400361299515 -0.26468798518180847 -0.16188499331474304 -0.6283619999885559 -0.7800840139389038 -0.10436899960041046 -0.23850899934768677 -0.7274870276451111 0.8131120204925537 -0.3397560119628906 0.4296729862689972 -0.17605799436569214 0.18583300709724426 0.010854000225663185 -0.47981300950050354 -0.15336500108242035 0.4450260102748871 0.3567250072956085 -0.9917809963226318 -0.8343139886856079 -0.15110500156879425 0.3090899884700775
un -0.339682012796402 -0.06851299852132797 -0.3011139929294586 -0.15133099257946014 0.3861899971961975 -0.5981870293617249 -0.006690000183880329 0.055764999240636826 0.1349489986896515 0.2782149910926819 0.3858790099620819 -0.4668850004673004 -0.34579798579216003 0.12229599803686142 0.18431200087070465 0.2320760041475296 0.3213549852371216 0.1036129966378212 -0.19715699553489685 0.251350998878479 -0.04005900025367737 -0.4028550088405609 0.17354300618171692 0.3513669967651367 -0.21470800042152405
▁met -0.08734700083732605 0.03219300135970116 0.14992600679397583 0.39350399374961853 -0.5576009750366211 0.09985599666833878 0.09700000286102295 -0.14942899346351624 -0.6122199892997742 -0.3466140031814575 -0.25466200709342957 0.3775700032711029 -0.12975500524044037 0.4520780146121979 -0.35095900297164917 0.021747000515460968 -0.13795100152492523 -0.4603250026702881 0.6784060001373291 0.17629000544548035 0.0591219998896122 -0.34469398856163025 -0.6863440275192261 -0.3559260070323944 -0.03396499902009964
▁door 0.6579840183258057 -0.37443000078201294 -0.3570539951324463 0.46861401200294495 -0.7650030255317688 -1.14302396774292 -0.21834400296211243 0.43424201011657715 0.20025399327278137 -0.44611600041389465 0.27760300040245056 0.9011600017547607 -1.0381629467010498 0.1598290055990219 0.5874239802360535 0.7185440063476562 -0.9280930161476135 -0.6939039826393127 -1.0688010454177856 0.321696013212204 -0.334212988615036 -0.6103919744491577 0.45990800857543945 0.10870999842882156 0.7776579856872559
elijk 0.42769700288772583 0.015730999410152435 -0.20680899918079376 -0.1671600043773651 -1.1184580326080322 -0.2937679886817932 -0.43137699365615845 -0.33695900440216064 -0.12634499371051788 -0.24843700230121613 -0.6431620121002197 1.0827690362930298 -0.45658600330352783 -0.3284060060977936 0.0349310003221035 -0.08402899652719498 -0.230880007147789 -0.39054998755455017 -0.45415499806404114 0.4752289950847626 0.1565990000963211 0.3189769983291626 -0.20781099796295166 0.038378000259399414 0.6415770053863525
▁aan -0.08417800068855286 -0.10038699954748154 -0.2567859888076782 0.20295700430870056 -0.6879029870033264 0.04576700180768967 -0.7250459790229797 -0.8200380206108093 -0.5314009785652161 0.03489900007843971 0.03188899904489517 0.5596020221710205 -0.3033539950847626 0.09548400342464447 0.06478399783372879 0.1771630048751831 -0.6001909971237183 -0.5206050276756287 0.09940999746322632 0.4972499907016754 0.1801699995994568 -0.18008500337600708 -0.6719380021095276 -0.45034798979759216 0.499442994594574
▁on 0.21422599256038666 -0.7532079815864563 -0.12856599688529968 -0.6861910223960876 -0.25916698575019836 -0.13783200085163116 -0.2776469886302948 0.0008270000107586384 -0.36767101287841797 -0.5302069783210754 -0.748045027256012 0.7611700296401978 0.02017199993133545 0.38292598724365234 0.463578999042511 -0.14991000294685364 -0.38609498739242554 -0.2509709894657135 0.0005530000198632479 0.19891099631786346 -0.027514999732375145 0.5204330086708069 -0.9820359945297241 0.03605499863624573 -0.23507699370384216
ap 0.31827500462532043 -0.07087499648332596 0.16503900289535522 0.17605799436569214 0.4726159870624542 -0.032138001173734665 0.3592129945755005 -0.4175249934196472 0.6313369870185852 0.1574220061302185 0.18298199772834778 0.12206199765205383 0.14571799337863922 0.06157200038433075 0.06521499902009964 -0.3707450032234192 0.1784989982843399 0.27064600586891174 -0.14397700130939484 0.20170000195503235 -0.061737000942230225 0.1925020068883896 0.4883370101451874 -0.13121800124645233 0.13476599752902985
eld 0.36059001088142395 -0.03410400077700615 -0.22245800495147705 -0.12350200116634369 -0.8028079867362976 -0.2565680146217346 -0.3313699960708618 -0.5825089812278748 -0.1897909939289093 -0.11059299856424332 0.13190500438213348 0.15418599545955658 -0.15551400184631348 0.1596360057592392 -0.1691260039806366 0.41970300674438477 -0.3669250011444092 -0.009015999734401703 0.2876020073890686 -0.1520799994468689 -0.3736720085144043 -0.2186650037765503 -0.4268440008163452 -0.16712799668312073 -0.13254599273204803
ken 0.050526998937129974 0.4502289891242981 -0.45611798763275146 -0.09448699653148651 -0.5901479721069336 -0.0708329975605011 -0.09602800011634827 -0.32190901041030884 0.03759700059890747 -0.22824400663375854 -0.5742779970169067 0.4938890039920807 -0.1074720025062561 0.2540009915828705 0.12241999804973602 0.24540099501609802 0.19175200164318085 -0.21733400225639343 0.2613619863986969 -0.48408299684524536 0.016499999910593033 -0.3498939871788025 -0.6186860203742981 0.04357999935746193 0.8124449849128723
▁zijn 0.050342001020908356 0.09543800354003906 -0.6888359785079956 0.4075720012187958 -1.2824970483779907 0.2886959910392761 -0.21664400398731232 -0.263262003660202 -0.4714150130748749 -0.5644500255584717 -0.2986089885234833 0.9459930062294006 -0.2964619994163513 0.08746200054883957 0.1922360062599182 0.0032160000409930944 0.16458900272846222 -0.6562169790267944 0.3437339961528778 -0.03449299931526184 0.4061090052127838 -0.5782439708709717 -0.16989700496196747 -0.5213890075683594 0.3171919882297516
ou -0.24037599563598633 -0.5407879948616028 -0.09184200316667557 0.3208779990673065 0.5593600273132324 -0.24787500500679016 0.033601000905036926 0.582850992679596 0.27987799048423767 -0.17453299462795258 0.10659600049257278 -0.023600999265909195 0.6719350218772888 -0.010135999880731106 0.11998199671506882 -0.1869809925556183 0.1839819997549057 0.1732410043478012 -0.35211798548698425 -0.19437499344348907 0.36734598875045776 -0.5025389790534973 -0.0259770005941391 -0.02979400008916855 -0.03902500122785568
▁na 0.10090799629688263 0.2176699936389923 -0.7780960202217102 0.5170040130615234 -0.38964301347732544 0.6267349720001221 -0.02335200086236 -0.06584800034761429 -0.5898399949073792 -0.5177919864654541 0.1040629968047142 0.5400480031967163 -0.3752869963645935 0.5668780207633972 -0.2071080058813095 -0.8680809736251831 -0.46883100271224976 -0.1927189975976944 0.1832139939069748 0.14313599467277527 0.1007310003042221 -0.21352599561214447 0.015734000131487846 -0.3684839904308319 0.1372780054807663
he 0.08126100152730942 -0.19905300438404083 0.304313987493515 -0.6197670102119446 0.15482200682163239 -0.3167339861392975 0.6328740119934082 -0.0049589998088777065 0.11512599885463715 0.20632299780845642 -0.3245440125465393 -0.027146000415086746 0.20839999616146088 0.4970549941062927 0.3290809988975525 0.3233659863471985 -0.14622199535369873 0.14612199366092682 -0.32342401146888733 -0.17200300097465515 0.8951489925384521 0.21772199869155884 -0.11051999777555466 0.3821989893913269 0.16880400478839874
▁hij 0.40292999148368835 -0.11500299721956253 -0.7531840205192566 0.4947429895401001 -1.3317500352859497 1.109158992767334 -0.587270975112915 0.08308500051498413 -1.0207070112228394 -0.510562002658844 0.5829150080680847 1.3385299444198608 -0.31567901372909546 -0.0994030013680458 -0.0882439985871315 0.4947670102119446 -0.547531008720398 -0.788569986820221 0.5952640175819397 0.8763759732246399 0.7173449993133545 -0.8542919754981995 0.34505799412727356 -1.3850090503692627 -0.2916739881038666
▁werd 0.886676013469696 0.45507198572158813 -0.5434610247612 0.7217339873313904 -1.3954349756240845 0.13002699613571167 -0.8067020177841187 0.42078301310539246 -0.2585799992084503 -0.5970749855041504 0.9880890250205994 0.6360189914703369 -1.1039600372314453 -0.18998999893665314 0.6358410120010376 0.16832700371742249 -2.051527976989746 -0.5485720038414001 -0.36539900302886963 0.44679999351501465 -0.08286400139331818 -0.03929400071501732 1.031777024269104 -0.22547399997711182 0.26601099967956543
es -0.16823700070381165 -0.5069220066070557 0.1712000072002411 0.24251499772071838 0.3953840136528015 -0.054979000240564346 0.6788660287857056 0.483599990606308 0.2309889942407608 0.013779000379145145 0.4473559856414795 -0.3641729950904846 0.1705790013074875 -0.006403000093996525 0.5022820234298706 -0.052191998809576035 0.5095160007476807 -0.09862100332975388 0.13424600660800934 -0.09012600034475327 -0.3851560056209564 -0.12265799939632416 0.5045940279960632 -0.3100129961967468 -0.45379799604415894
▁r -0.20196999609470367 -0.14110000431537628 -0.1536169946193695 0.40655699372291565 0.575232982635498 -0.14430400729179382 0.26910799741744995 0.03777499869465828 -0.09796299785375595 -0.015049000270664692 -0.011222000233829021 -0.4476099908351898 -0.2731820046901703 -0.009854000061750412 -0.15202400088310242 -0.03094100020825863 -0.13581599295139313 -0.053578998893499374 -0.27543699741363525 -0.05143199861049652 0.07529199868440628 -0.03897000104188919 -0.06742999702692032 0.3361450135707855 0.07137399911880493
op 0.4206230044364929 -0.048604000359773636 0.16874900460243225 -0.20581400394439697 -0.2631230056285858 0.05737899988889694 0.5651819705963135 -0.6593539714813232 0.5803700089454651 0.3644919991493225 0.2786270081996918 0.3392679989337921 0.003208999987691641 0.557703971862793 0.3299719989299774 -0.1345600038766861 -0.057029999792575836 -0.10168900340795517 0.5792570114135742 0.1913139969110489 0.09681399911642075 0.38154399394989014 0.5754960179328918 0.31211599707603455 -0.640188992023468
eer 0.1767529994249344 -0.3788360059261322 0.26128900051116943 -0.23531800508499146 -0.8179060220718384 -0.03722599893808365 0.020975999534130096 -0.07126600295305252 -0.6399480104446411 -0.42758798599243164 -0.12413399666547775 0.3639349937438965 -0.0039889998733997345 0.4477570056915283 -0.19705499708652496 -0.5706480145454407 -0.23477999866008759 -0.050638001412153244 0.18058399856090546 0.0032250001095235348 -0.27976900339126587 0.046650998294353485 -0.881866991519928 0.006022000219672918 0.3312700092792511
og 0.09376300126314163 -0.024035999551415443 0.023057999089360237 -0.35207200050354004 -0.0335719995200634 -0.1220650002360344 0.4213449954986572 -0.09365999698638916 0.6121500134468079 0.27224698662757874 -0.3505780100822449 0.37387600541114807 0.08129499852657318 0.3502649962902069 -0.06876800209283829 -0.002850000048056245 0.482138991355896 0.2208620011806488 0.09147299826145172 -0.021896999329328537 -0.11092299968004227 0.39214399456977844 0.3779720067977905 0.02397800050675869 0.7348639965057373
ste -0.4220210015773773 -0.098642997443676 0.025759000331163406 0.2605170011520386 -0.415226012468338 -0.19188599288463593 0.1673240065574646 -0.13815300166606903 -0.501954972743988 0.05873199924826622 -0.003289999905973673 -0.07556399703025818 0.04492200165987015 -0.05990799888968468 -0.28703901171684265 0.2457830011844635 0.03863000124692917 -0.35882601141929626 0.3565239906311035 -0.1336659938097 0.07776500284671783 -0.16699400544166565 -0.6684659719467163 0.18605899810791016 0.5821930170059204
0000 0.2795279920101166 0.593762993812561 0.7343800067901611 0.02406900003552437 0.36269399523735046 -0.5741599798202515 -0.1097709983587265 1.3036390542984009 -0.2849229872226715 -0.5560410022735596 0.49949100613594055 -1.8085240125656128 0.37679800391197205 0.3121359944343567 -1.8603990077972412 -0.21932600438594818 0.2859469950199127 2.4998810291290283 0.8299980163574219 0.4483790099620819 0.49015000462532043 0.12355300039052963 0.024620000272989273 0.12811100482940674 -0.9693359732627869
ent -0.2608430087566376 0.18875199556350708 0.22512300312519073 -0.09669499844312668 0.04366400092840195 -0.4092229902744293 -0.5106809735298157 0.2694520056247711 0.44672998785972595 0.15982100367546082 0.018577000126242638 -0.3377839922904968 0.0368879996240139 -0.1328040063381195 0.440762996673584 0.1504960060119629 0.3897689878940582 -0.367249995470047 0.41875898838043213 0.6412420272827148 -0.19808900356292725 -0.04073899984359741 0.09495700150728226 -0.16695700585842133 0.1473429948091507
oort 0.7906190156936646 0.7633640170097351 0.17626400291919708 0.33524900674819946 0.16123799979686737 0.054740000516176224 1.1550649404525757 -1.1760469675064087 0.834896981716156 0.04387100040912628 0.14652399718761444 -0.04979899898171425 0.5225890278816223 0.06424500048160553 0.24275900423526764 -0.2251259982585907 -0.22415399551391602 -0.2893190085887909 0.7672070264816284 -0.25495800375938416 0.23123599588871002 0.6533070206642151 0.09291700273752213 -0.17184899747371674 0.8733279705047607
eg 0.1799429953098297 -0.3755060136318207 -0.11446499824523926 -0.02536799944937229 0.16146700084209442 0.32520899176597595 -0.02710700035095215 -0.6915429830551147 0.17057399451732635 0.305184006690979 -0.06472600251436234 0.5097050070762634 -0.10395999997854233 0.39842700958251953 -0.0012179999612271786 -0.10203400254249573 -0.19844700396060944 0.3110310137271881 -0.05198799818754196 0.21070200204849243 -0.19512900710105896 0.17807899415493011 0.037167999893426895 -0.232246994972229 -0.033020999282598495
ik 0.04914600029587746 0.3093160092830658 -0.6459580063819885 -0.20588700473308563 0.30957499146461487 0.1105239987373352 -0.19671599566936493 -0.06702499836683273 0.3715530037879944 0.0022799998987466097 -0.5788130164146423 0.2694160044193268 -0.3728800117969513 0.3796679973602295 -0.26286599040031433 0.2977229952812195 0.014282000251114368 0.4920780062675476 -0.2818889915943146 -0.4173929989337921 -0.2179809957742691 -0.2077919989824295 0.16116300225257874 0.4777959883213043 0.009715000167489052
ad 0.23078200221061707 -0.19036799669265747 -0.34152698516845703 -0.03931500017642975 0.960286021232605 0.013174000196158886 -0.016613999381661415 0.044541001319885254 0.20094899833202362 0.4359619915485382 0.04707299917936325 -0.07592500001192093 0.15886999666690826 -0.20103499293327332 0.19701799750328064 0.03569300100207329 0.08185400068759918 0.3803130090236664 -0.47349199652671814 0.2966519892215729 -0.37396401166915894 0.14217300713062286 0.24757100641727448 -0.08933299779891968 -0.12714199721813202
ers 0.11358299851417542 -0.05513099953532219 -0.04666600003838539 -0.371724009513855 -0.0010939999483525753 -0.5656399726867676 0.2273930013179779 -0.36506399512290955 0.0674469992518425 -0.73362797498703 0.5161529779434204 -0.06197800114750862 0.1139800027012825 -0.07769300043582916 -0.20436200499534607 -0.42738398909568787 -0.1415340006351471 -0.10065899789333344 0.11730299890041351 -0.7029520273208618 0.053470999002456665 -0.21016399562358856 -0.30260398983955383 0.06092299893498421 0.29384100437164307
▁0 0.7684329748153687 0.8453720211982727 1.266005039215088 0.19953300058841705 -0.0031330001074820757 0.21194300055503845 0.06006399914622307 1.045549988746643 -1.0995759963989258 -1.041653037071228 -0.5079230070114136 -0.8150969743728638 0.5071449875831604 0.32300201058387756 -0.7549309730529785 -0.21292300522327423 -1.0788220167160034 0.4315600097179413 0.3483000099658966 0.15973199903964996 -0.6909729838371277 0.687313973903656 -0.8630179762840271 0.430990993976593 -2.140717029571533
ven 0.12326300144195557 0.44165098667144775 -0.6580460071563721 0.06665000319480896 -0.30805298686027527 0.09820300340652466 -0.34685298800468445 -0.37598100304603577 -0.16371099650859833 -0.26853200793266296 -0.042364999651908875 0.03477799892425537 -0.09127900004386902 0.17759999632835388 0.09559600055217743 0.2283879965543747 -0.10704199969768524 -0.029079999774694443 0.09368100017309189 0.010591999627649784 0.15956099331378937 -0.33757099509239197 -0.6676250100135803 -0.09583300352096558 0.49745801091194153
um 0.26688000559806824 0.7042490243911743 0.11117400228977203 -0.0695590004324913 0.44535601139068604 -0.5473229885101318 0.37849700450897217 0.3548789918422699 0.8160589933395386 0.36735299229621887 0.39094600081443787 -1.058061957359314 0.06777100265026093 0.13464200496673584 0.8944680094718933 0.10645099729299545 0.0187780000269413 0.10494600236415863 0.3805370032787323 0.6147699952125549 -0.04286099970340729 0.6244570016860962 0.3649980127811432 0.17036999762058258 0.23362599313259125
▁die 0.23195500671863556 0.18347899615764618 -0.2399200052022934 0.33419498801231384 -0.8200479745864868 0.22384099662303925 0.06979600340127945 -0.7177950143814087 -0.3310520052909851 -0.23486599326133728 -0.33493301272392273 0.663336992263794 -0.28255900740623474 -0.15381599962711334 0.1395229995250702 0.339603990316391 0.13621999323368073 -0.9403480291366577 0.06864000111818314 -0.13013100624084473 0.27457699179649353 -0.30537301301956177 -0.3982119858264923 -0.196943998336792 0.10301300138235092
ak 0.17542199790477753 -0.03420199826359749 -0.9142100214958191 0.04134099930524826 0.5429270267486572 0.14598900079727173 -0.21435600519180298 -0.05217999964952469 0.29502201080322266 0.059675998985767365 -0.32556501030921936 0.579118013381958 -0.16412900388240814 0.17673000693321228 -0.3010469973087311 0.005357000045478344 -0.22861799597740173 0.32492199540138245 -0.10004899650812149 -0.2543559968471527 -0.4000929892063141 -0.07636699825525284 0.1491509974002838 0.43020400404930115 0.3829450011253357
▁re -0.3077090084552765 -0.24240699410438538 -0.059477999806404114 -0.0988759994506836 -0.11245500296354294 -0.29770800471305847 -0.6312270164489746 -0.07872799783945084 0.05492899939417839 -0.24675199389457703 0.07045000046491623 -0.006074999924749136 -0.35690000653266907 -0.16762399673461914 -0.012171000242233276 0.23045000433921814 0.08608800172805786 -0.4276140034198761 0.1884240061044693 0.3667919933795929 0.1722400039434433 -0.5549870133399963 0.06852699816226959 -0.14212900400161743 -0.12341099977493286
ub -0.09921900182962418 0.28533899784088135 -0.027025999501347542 0.399946004152298 0.3745119869709015 0.23153500258922577 0.7089629769325256 0.005814999807626009 0.3278439939022064 0.5509480237960815 0.3763740062713623 -0.30652400851249695 -0.021877000108361244 -0.13213999569416046 -0.2301740050315857 -0.1914689987897873 0.6771320104598999 0.21633200347423553 -0.12807700037956238 -0.23871000111103058 -0.618120014667511 -0.16993699967861176 0.5885019898414612 0.4879150092601776 -0.04715900123119354
▁eer 0.16930699348449707 -0.0104179996997118 -0.9700599908828735 0.1413470059633255 -0.9494289755821228 0.5174229741096497 -0.7070429921150208 -0.09582000225782394 -0.3927280008792877 -1.040550947189331 -0.3884640038013458 0.5325959920883179 -0.38961300253868103 -0.17625899612903595 -0.008342999964952469 -0.09193100035190582 -0.2780880033969879 -0.36722201108932495 0.4663439989089966 0.02001200057566166 0.6236220002174377 -0.44901400804519653 -0.19624599814414978 -0.5333870053291321 -0.12586799263954163
▁als 0.12613999843597412 -0.14850999414920807 -0.45553499460220337 0.11182799935340881 -0.6684160232543945 0.30297398567199707 -0.48606300354003906 0.0940610021352768 -0.24975800514221191 -0.5666189789772034 -0.35381799936294556 0.9109140038490295 0.0170889999717474 -0.4354270100593567 0.07489799708127975 0.5233590006828308 0.12443699687719345 -0.5399709939956665 0.3901990056037903 -0.023832999169826508 0.7126989960670471 -0.5561559796333313 -0.054864998906850815 -0.1270740032196045 -0.10141000151634216
ct -0.12756800651550293 0.17043200135231018 0.4645040035247803 -0.19940200448036194 -0.18876999616622925 -0.2511579990386963 -0.4014109969139099 0.0009200000204145908 0.8098570108413696 0.22480599582195282 -0.3116999864578247 0.13633599877357483 -0.22281600534915924 0.12052199989557266 0.44868001341819763 0.22609399259090424 0.7874969840049744 -0.830020010471344 0.39671000838279724 0.716027021408081 -0.5259069800376892 -0.1459749937057495 0.5137829780578613 -0.06873700022697449 -0.20348499715328217
ok 0.31934499740600586 0.20302799344062805 -0.9181190133094788 -0.004447000101208687 1.111372947692871 0.196834996342659 0.21415899693965912 -0.24080100655555725 0.5120499730110168 -0.24941399693489075 -0.09936799854040146 0.17709200084209442 0.38071200251579285 -0.18786099553108215 -0.015312000177800655 -0.193449005484581 -0.36675500869750977 -0.09016100317239761 -0.01679999940097332 -0.7502700090408325 -0.6344990134239197 -0.052976999431848526 -0.0019209999591112137 0.7149810194969177 0.0890749990940094
isch -1.2305430173873901 -0.04287799820303917 1.2858799695968628 -0.49322399497032166 -0.17681600153446198 0.44443100690841675 -0.6091160178184509 0.5015100240707397 0.5358530282974243 0.47166499495506287 -0.4627229869365692 0.3354490101337433 -0.5424799919128418 -0.6045250296592712 -1.1466530561447144 0.5299540162086487 -0.12855499982833862 -0.8362590074539185 0.07230900228023529 -0.7321100234985352 0.26996299624443054 0.4630129933357239 1.796759009361267 0.7849329710006714 0.8984940052032471
aan 0.21541300415992737 0.18021300435066223 0.13597099483013153 -0.0028280001133680344 -0.11186199635267258 -0.04928300157189369 0.0545709989964962 -0.622393012046814 -0.06903699785470963 -0.2337689995765686 -0.3064340054988861 0.8932679891586304 0.4623579978942871 0.42207399010658264 0.18577100336551666 -0.3315599858760834 -0.7178540229797363 -0.7433459758758545 0.3796989917755127 -0.38329800963401794 -0.16019700467586517 -0.19627000391483307 -0.9205089807510376 0.15624700486660004 -0.00019200000679120421
▁wor 0.6858810186386108 -0.6618549823760986 -0.2887519896030426 -0.37470799684524536 0.16992299258708954 -0.3016209900379181 0.5172860026359558 0.20241999626159668 0.05358399823307991 -0.42722800374031067 0.5159059762954712 -0.05077600106596947 0.8073570132255554 -1.0164580345153809 -0.10561399906873703 0.020437000319361687 0.5387240052223206 -0.7054839730262756 0.9540209770202637 0.4096679985523224 0.7244859933853149 0.43291598558425903 -0.1306689977645874 1.5122499465942383 -1.4270590543746948
▁was 0.22319799661636353 0.11451099812984467 -0.059470999985933304 0.21923799812793732 -0.35053300857543945 0.9237220287322998 -0.7852590084075928 0.130499005317688 -0.5409960150718689 -0.8583160042762756 -0.01726900041103363 0.5229989886283875 -0.380638986825943 -0.3023200035095215 -0.36542999744415283 0.4902440011501312 -1.1751600503921509 -0.4156250059604645 0.31369900703430176 0.1289680004119873 0.32776498794555664 -0.21478499472141266 0.5189859867095947 -0.9822620153427124 0.041457999497652054
ier 0.18264800310134888 -0.1478780061006546 0.21784000098705292 0.2177789956331253 -0.005565000232309103 -0.015540000051259995 0.5014979839324951 -0.02764200046658516 0.05272600054740906 0.2012840062379837 0.21156500279903412 0.23535899817943573 0.35398900508880615 -0.3148980140686035 0.1486389935016632 -0.1612830013036728 0.3168739974498749 0.10067100077867508 -0.5330439805984497 -0.07185400277376175 0.12139099836349487 0.1065329983830452 0.42203599214553833 -0.25679001212120056 0.5353950262069702
▁dat 0.7541059851646423 -0.553413987159729 -0.44817298650741577 0.4734010100364685 -1.5704920291900635 0.3700830042362213 -0.634975016117096 -0.9659680128097534 -0.3548089861869812 -0.15066500008106232 -0.43144699931144714 1.1730049848556519 -0.5495479702949524 -0.3513070046901703 0.11550799757242203 0.8078849911689758 -0.0399710014462471 -0.42667800188064575 0.3291969895362854 1.2279659509658813 0.6919490098953247 0.27417099475860596 -0.06324400007724762 -0.39780500531196594 -0.4924440085887909
em 0.02386300079524517 0.26602599024772644 0.09545399993658066 -0.018998999148607254 0.24040600657463074 -0.17020300030708313 0.1796029955148697 -0.10119800269603729 0.2050040066242218 0.12616899609565735 -0.15283599495887756 -0.20099599659442902 -0.2526189982891083 0.07765299826860428 -0.3213390111923218 0.05579499900341034 0.5168409943580627 -0.04781800135970116 -0.16531799733638763 0.10806500166654587 -0.3519339859485626 -0.16838499903678894 0.23601800203323364 0.15702800452709198 -0.1635970026254654
uw 0.41080400347709656 0.5568900108337402 -0.29281601309776306 0.09130699932575226 -0.07277599722146988 -0.1172569990158081 0.5348219871520996 -0.1844940036535263 -0.07933200150728226 -0.017649000510573387 -0.39062100648880005 0.7635679841041565 0.5729169845581055 0.09041699767112732 -0.4428580105304718 -0.03895699977874756 -0.22006499767303467 0.1746699959039688 -0.05276099964976311 -0.5464460253715515 0.7662960290908813 -0.07369299978017807 -0.6212559938430786 -0.34835800528526306 1.0016529560089111
schap -0.6692960262298584 -0.2637690007686615 0.023585999384522438 -0.9264979958534241 -0.3678320050239563 0.2778399884700775 -0.5923439860343933 -0.2261500060558319 -1.3779350519180298 0.8240450024604797 0.4585520029067993 0.4138390123844147 -0.6059690117835999 -0.7113850116729736 -0.52190101146698 -0.2887200117111206 -0.5512769818305969 -0.06251499801874161 -0.9875320196151733 0.1314300000667572 1.0723530054092407 0.11871200054883957 -0.1540919989347458 0.02379399910569191 0.235276997089386
▁sp 0.14492399990558624 0.4185349941253662 -0.10338100045919418 0.019944999366998672 -0.12818799912929535 0.13104000687599182 0.6139259934425354 -0.48085200786590576 -0.1294029951095581 0.3638080060482025 0.43192198872566223 0.5165920257568359 0.11661099642515182 -0.14480499923229218 -0.23139500617980957 -0.374206006526947 0.22681200504302979 -0.7243800163269043 0.1940709948539734 -0.33052098751068115 -0.299452006816864 -0.46022000908851624 -0.053575001657009125 0.6674870252609253 -0.22634899616241455
ag 0.3935129940509796 0.2525019943714142 -0.017991000786423683 0.24371400475502014 0.4500479996204376 0.11497599631547928 0.33680498600006104 0.06839100271463394 0.21714599430561066 0.023243999108672142 -0.09165100008249283 0.27188900113105774 0.17252999544143677 0.2834939956665039 -0.06855499744415283 -0.37616801261901855 0.16356199979782104 -0.03136099874973297 -0.21713800728321075 0.3312259912490845 -0.11129000037908554 0.03322499990463257 0.19541899859905243 -0.011037000454962254 0.09237799793481827
elijke 0.6498889923095703 0.06858500093221664 0.3694689869880676 0.2710820138454437 -0.8360660076141357 -1.1743630170822144 0.44234800338745117 -0.7628419995307922 0.8774240016937256 0.019747000187635422 0.6298980116844177 0.5227919816970825 -0.6428589820861816 -0.94691002368927 1.0354030132293701 -0.4335060119628906 -1.272655963897705 -1.2102769613265991 -1.139165997505188 -1.0374150276184082 0.046209000051021576 0.5020260214805603 0.8549879789352417 0.969668984413147 0.641398012638092
ri -0.23005299270153046 0.19463400542736053 -0.038878001272678375 0.08015000075101852 0.10983899980783463 -0.05199800059199333 0.42460599541664124 0.25027701258659363 0.4202899932861328 0.30427199602127075 0.3036249876022339 0.011424999684095383 -0.12783299386501312 0.2926439940929413 0.34545600414276123 -0.08588200062513351 0.4543919861316681 0.10443300008773804 -0.14047999680042267 -0.3199540078639984 0.2336760014295578 -0.5071550011634827 0.7055730223655701 -0.17364999651908875 -0.11060799658298492
▁tot 0.9590650200843811 0.5465270280838013 0.5991659760475159 0.591401994228363 -1.3132699728012085 0.2744710147380829 0.16943800449371338 -1.0174570083618164 -0.5105460286140442 -0.28644299507141113 0.059108998626470566 0.07790599763393402 -0.438973993062973 -0.4595179855823517 0.3711470067501068 0.37766098976135254 -0.49215298891067505 -0.3704099953174591 0.2881210148334503 0.579475998878479 0.0220589991658926 0.7396489977836609 0.08101099729537964 -0.6646130084991455 -0.6794829964637756
ant 0.12360399961471558 0.16441300511360168 0.2887899875640869 0.4571090042591095 0.3303059935569763 -0.28835800290107727 0.17724600434303284 -0.14164400100708008 0.5423049926757812 0.32605499029159546 -0.18289700150489807 0.04897899925708771 0.40257200598716736 -0.29258298873901367 0.25203099846839905 -0.16089199483394623 0.6167309880256653 -0.20494399964809418 -0.21855400502681732 0.29072999954223633 0.03392700105905533 0.1076819971203804 0.15482600033283234 -0.2060070037841797 0.4351460039615631
ru -0.2517690062522888 0.13777300715446472 0.06306900084018707 0.11050199717283249 0.09350600093603134 -0.23393100500106812 0.03355500102043152 -0.14172500371932983 0.4170050024986267 0.31377801299095154 -0.1382479965686798 0.23956100642681122 -0.05365699902176857 0.8394449949264526 0.0671280026435852 0.2093620002269745 0.045844998210668564 0.03376699984073639 0.024529000744223595 0.05795799940824509 -0.04676499962806702 -0.405582994222641 -0.08461800217628479 0.15823499858379364 0.4569830000400543
▁bij 0.0087890001013875 0.05675499886274338 -0.08163399994373322 0.4009439945220947 -0.9499359726905823 0.22713400423526764 -0.09940599650144577 -0.6328129768371582 -0.3643290102481842 0.20826900005340576 0.052310001105070114 0.310249000787735 -0.054997000843286514 0.2595739960670471 -0.013132999651134014 0.32716599106788635 -0.17990900576114655 -0.31290799379348755 0.3048129975795746 0.07294800132513046 -0.0990620031952858 -0.5226119756698608 -0.5905860066413879 -0.3513660132884979 -0.004664999898523092
). 0.6889309883117676 -0.25536200404167175 0.8048890233039856 0.41791099309921265 -1.0308109521865845 -0.5018100142478943 0.9299139976501465 0.42087599635124207 1.026458978652954 -0.6004379987716675 1.0368289947509766 -0.3357259929180145 0.2747339904308319 0.08139500021934509 0.9215700030326843 -1.0389059782028198 -1.0714759826660156 0.669327974319458 -0.29896000027656555 -1.6826159954071045 -0.8928459882736206 1.06118905544281 0.4156619906425476 0.9054870009422302 -0.36444100737571716
ul 0.01730000041425228 -0.08886100351810455 0.2580229938030243 0.03340400010347366 0.4118640124797821 -0.15139199793338776 0.4232589900493622 -0.4245949983596802 0.8663060069084167 0.0039980001747608185 -0.22399400174617767 -0.22703400254249573 -0.5282099843025208 0.4279789924621582 0.2723039984703064 0.19138500094413757 0.395455002784729 -0.07572899758815765 -0.10832300037145615 -0.02442600019276142 -0.4438680112361908 -0.0264040008187294 0.7329949736595154 0.12106899917125702 -0.15239499509334564
▁om 0.12292999774217606 -0.1277099996805191 -0.20974600315093994 0.056122999638319016 -0.7242929935455322 -0.024667000398039818 -0.7655940055847168 -1.0016189813613892 -0.24716299772262573 -0.19585999846458435 -0.3826119899749756 1.1599980592727661 -0.3216100037097931 0.3660080134868622 0.14782500267028809 -0.1959020048379898 -0.30784499645233154 -0.550042986869812 -0.0887100026011467 0.587643027305603 0.22195300459861755 -0.5136839747428894 -0.6831979751586914 -0.18059200048446655 0.22558900713920593
iet 0.3888309895992279 -0.164559006690979 -0.2200700044631958 -0.01592100039124489 -0.07931800186634064 -0.0930429995059967 -0.05601099878549576 -0.22162500023841858 0.09204500168561935 -0.2256699949502945 -0.27499300241470337 0.41572800278663635 0.10833899676799774 0.17307299375534058 -0.21418699622154236 0.038332998752593994 0.24024799466133118 0.26347801089286804 -0.11958199739456177 0.40268999338150024 0.45799699425697327 -0.1258849948644638 -0.25531598925590515 -0.34779900312423706 0.3942260146141052
sen 0.17830799520015717 -0.021462999284267426 -0.07407400012016296 -0.4821920096874237 -0.48536399006843567 -0.03714799880981445 0.745389997959137 -0.15851899981498718 -0.47650301456451416 -0.43101999163627625 -0.1554110050201416 0.15300199389457703 -0.24203400313854218 0.5533440113067627 -0.1751219928264618 0.09387300163507462 0.3209660053253174 -0.15282000601291656 -0.17396900057792664 -0.5387660264968872 -0.18644000589847565 -0.052267998456954956 -0.48559799790382385 0.05190400034189224 0.35650700330734253
▁- 0.15827399492263794 0.3569599986076355 0.4897420108318329 -0.29187700152397156 1.814370036125183 0.035381998866796494 0.23505599796772003 0.8472549915313721 -0.41626599431037903 -0.18376800417900085 -0.307543009519577 -0.7381550073623657 0.6790220141410828 0.06172500178217888 -0.9789320230484009 1.0881060361862183 0.14744800329208374 0.9506880044937134 -0.1731870025396347 -0.21888500452041626 0.0808430016040802 -0.3677600026130676 -0.10173600167036057 -0.3282780051231384 -0.985293984413147
▁er 0.258215993642807 0.21169599890708923 -0.3974060118198395 0.14603999257087708 -0.9253190159797668 0.04148999974131584 -0.3441939949989319 -0.30518999695777893 -0.3356510102748871 -0.4757089912891388 -0.5224990248680115 0.5383449792861938 -0.5249369740486145 0.392969012260437 0.04196000099182129 0.09735000133514404 -0.12852999567985535 -0.5167419910430908 0.13502800464630127 0.4474329948425293 0.21195699274539948 -0.43201500177383423 -0.5913029909133911 0.11158700287342072 0.2396329939365387
erk -0.2671779990196228 0.5984439849853516 -0.26790401339530945 -0.0980909988284111 0.07441800087690353 -0.2041269987821579 -0.3692770004272461 -0.27827998995780945 0.1542229950428009 0.3367370069026947 -0.3400700092315674 0.21241499483585358 -0.09208100289106369 0.647134006023407 -0.4357770085334778 0.050634000450372696 -0.4608269929885864 0.3333989977836609 0.15743499994277954 0.06718199700117111 0.2943960130214691 0.08841100335121155 -0.27278900146484375 -0.14433600008487701 1.3052150011062622
ft 0.2558479905128479 0.50279301404953 -0.3379949927330017 -0.08231800049543381 -0.3346709907054901 -0.4760209918022156 0.2029549926519394 -0.1901240050792694 0.0549050010740757 0.017014000564813614 0.07925699651241302 0.36017099022865295 0.24417200684547424 0.22527199983596802 -0.372283011674881 -0.2555620074272156 0.07584399729967117 0.08056999742984772 0.7036920189857483 -0.11532299965620041 0.5046290159225464 -0.20181399583816528 -0.23274999856948853 0.4781700074672699 0.11200500279664993
ae 0.8519960045814514 0.31290799379348755 0.6434440016746521 0.05830200016498566 0.4401339888572693 -0.4864250123500824 2.01418399810791 0.02106199972331524 1.6714420318603516 -0.1618500053882599 0.42577800154685974 -0.3702560067176819 0.0365619994699955 -0.14139999449253082 0.532168984413147 -0.370510995388031 1.0791560411453247 -0.032267000526189804 0.017518000677227974 -0.4157460033893585 0.20502300560474396 0.5974940061569214 2.0333518981933594 0.5953140258789062 -0.20993299782276154
eerd -0.08652400225400925 0.3847759962081909 -0.0024820000398904085 -0.2659919857978821 -0.551476001739502 -0.07372699677944183 -1.209496021270752 0.14638400077819824 0.22133399546146393 0.07017900049686432 -0.400858998298645 0.4787299931049347 -0.21134699881076813 -0.0851449966430664 -0.1487320065498352 0.3958820104598999 0.0961339995265007 -0.48581400513648987 0.4940359890460968 1.0054889917373657 -0.2803719937801361 -0.3599199950695038 0.07448100298643112 0.15532900393009186 0.07358399778604507
ze -0.23503200709819794 0.014101999811828136 -0.31192201375961304 -0.2367819994688034 0.15115800499916077 -0.4967319965362549 -0.1074960008263588 0.1890300065279007 0.3500320017337799 -0.12330500036478043 -0.3885610103607178 0.22328400611877441 -0.3221539855003357 0.565796971321106 -0.07118800282478333 -0.21555300056934357 0.0913819968700409 0.6538209915161133 -0.5634220242500305 -0.35521000623703003 0.2753080129623413 -0.367372989654541 0.02967499941587448 0.29655399918556213 0.04034699872136116
os 0.06578999757766724 -0.10524900257587433 0.00419900007545948 0.2638089954853058 0.5573559999465942 0.2790899872779846 0.43584001064300537 0.18953900039196014 0.8716199994087219 0.464262992143631 -0.32937899231910706 0.34762701392173767 0.00940600037574768 0.3000339865684509 0.14264099299907684 -0.5069990158081055 0.5560309886932373 0.12021499872207642 -0.2452870011329651 0.15947900712490082 -0.38266700506210327 0.204708993434906 0.9800980091094971 0.13530200719833374 -0.09965100139379501
aal -0.22731299698352814 0.2519710063934326 0.1693750023841858 -0.05123800039291382 -0.8939700126647949 -0.0959549993276596 -0.5556889772415161 -0.05304599925875664 -0.3168469965457916 0.06773699820041656 0.14691199362277985 0.33160600066185 0.12445700168609619 -0.2835409939289093 -0.3006339967250824 -0.2962090075016022 0.06579600274562836 -0.47272101044654846 0.2088630050420761 0.026420999318361282 -0.37559399008750916 -0.1914220005273819 -0.35131698846817017 0.21696999669075012 0.22123999893665314
land -0.2688780128955841 -0.32247498631477356 0.08986400067806244 -0.3025600016117096 0.16002799570560455 0.24706700444221497 -0.15534700453281403 -0.3510499894618988 -1.018476963043213 0.40484699606895447 0.8399059772491455 -0.7742180228233337 -0.11332699656486511 -0.7164850234985352 -0.777534008026123 0.3271009922027588 -0.6460480093955994 -0.04302600026130676 -0.39318200945854187 0.375324010848999 0.35964399576187134 0.3363170027732849 -0.26146399974823 0.27806100249290466 0.4241270124912262
▁sch 0.2795569896697998 0.1847050040960312 -0.09903799742460251 -0.5604599714279175 -0.03475400060415268 -0.42765700817108154 0.39059698581695557 -0.3785470128059387 -0.0634320005774498 -0.31893599033355713 0.043122000992298126 0.22709700465202332 -0.14865800738334656 0.02510800026357174 -0.2725589871406555 0.687125027179718 -0.24198800325393677 -0.15233300626277924 -0.011340999975800514 -0.7348560094833374 0.24843600392341614 -0.30790698528289795 -0.018595999106764793 -0.37449800968170166 0.6627230048179626
im 0.06394100189208984 -0.2897840142250061 0.3407000005245209 0.2123740017414093 0.5568469762802124 -0.4722039997577667 0.38763898611068726 0.14308400452136993 0.39530399441719055 -0.006506999954581261 -0.24575600028038025 -0.5061209797859192 -0.058524999767541885 0.21388700604438782 0.11214900016784668 0.12470799684524536 0.4825280010700226 -0.06025300174951553 0.00356599991209805 0.22209200263023376 -0.4748289883136749 0.19432500004768372 0.09668300300836563 0.17017599940299988 -0.21138599514961243
▁onder 0.010487000457942486 0.2875800132751465 0.04352699965238571 -0.10717800259590149 -0.8549190163612366 0.051263999193906784 -0.10020700097084045 -0.32115501165390015 -0.09909100085496902 -0.17667999863624573 -0.08824300020933151 0.35200101137161255 0.04095499962568283 -0.49000799655914307 0.1701499968767166 -0.057767000049352646 0.2554929852485657 -0.8360949754714966 0.2198289930820465 -0.2724440097808838 -0.24864399433135986 -0.09344299882650375 -0.3616989850997925 -0.4726090133190155 0.5886380076408386
ang 0.5074250102043152 -0.31734699010849 -0.135234996676445 0.27236199378967285 0.728996992111206 -0.25394898653030396 0.13580699265003204 -0.0023900000378489494 0.1952980011701584 -0.0021329999435693026 -0.008949999697506428 0.4253529906272888 0.5065460205078125 -0.3065049946308136 -0.12904399633407593 0.06065100058913231 0.024255000054836273 0.11240299791097641 -0.28741899132728577 0.17761099338531494 -0.1812029927968979 -0.050335001200437546 -0.02627900056540966 -0.026381999254226685 0.12104599922895432
eten -0.08183500170707703 -0.08408000320196152 -0.06349299848079681 -0.07440699636936188 -0.6269959807395935 -0.0471699982881546 -0.48227599263191223 -1.0054689645767212 0.1478790044784546 -0.1362760066986084 -1.0919430255889893 0.9839839935302734 -0.10641299933195114 0.030292000621557236 -0.09525000303983688 0.2792370021343231 0.25603699684143066 -0.13646300137043 -0.2170190066099167 -0.06069900095462799 0.48416000604629517 -0.5677449703216553 -0.901390016078949 0.4050140082836151 0.1258009970188141
aat -0.01547900028526783 0.11983899772167206 0.15990999341011047 -0.3756139874458313 -0.7101789712905884 0.16780799627304077 -0.39024999737739563 -0.38333699107170105 -0.20531600713729858 0.5346059799194336 -0.2103859931230545 0.3791869878768921 -0.007966999895870686 -0.3862850069999695 -0.03912099823355675 0.262131005525589 0.07931099832057953 -0.2452239990234375 -0.1649630069732666 0.082676000893116 -0.18943800032138824 0.17798000574111938 -0.3874000012874603 -0.05837700143456459 0.22936399281024933
ele -0.20712900161743164 0.19603100419044495 -0.10941299796104431 -0.5534759759902954 -0.21007099747657776 -0.21678200364112854 -0.523190975189209 -0.039034001529216766 0.4255070090293884 0.028988000005483627 -0.08482900261878967 0.2133760005235672 0.020461000502109528 -0.4194340109825134 0.16956500709056854 0.25660499930381775 0.6784859895706177 -0.6679049730300903 0.4956580102443695 0.03783499822020531 -0.6666290163993835 -0.31808000802993774 0.06878799945116043 0.24932700395584106 0.14176400005817413
ond -0.05611199885606766 -0.09136799722909927 -0.05425800010561943 -0.05338900163769722 -0.42634299397468567 0.1820099949836731 -0.21216799318790436 0.20333600044250488 -0.3982050120830536 0.3023790121078491 0.3410800099372864 0.4634090065956116 0.06427299976348877 0.1514279991388321 0.2863999903202057 -0.17245900630950928 -0.7176169753074646 -0.274383008480072 -0.11026100069284439 0.14688800275325775 0.11862099915742874 -0.1908169984817505 -0.1575070023536682 -0.39848700165748596 0.12649300694465637
ist -0.7514640092849731 -0.0886550024151802 0.25272199511528015 -0.5379689931869507 0.5452010035514832 -0.13189999759197235 -0.5615079998970032 0.2049739956855774 0.32335901260375977 0.5843549966812134 -0.11571499705314636 0.15094700455665588 -0.3747349977493286 -0.23750700056552887 0.15860599279403687 0.08200699836015701 0.3066290020942688 -0.6325219869613647 -0.23013100028038025 0.059741001576185226 -0.34918299317359924 0.12885600328445435 0.7873820066452026 -0.4163540005683899 -0.008066999725997448
ed -0.1968110054731369 -0.21706800162792206 -0.13516099750995636 -0.038770001381635666 0.40299201011657715 0.12121599912643433 -0.11653699725866318 0.4794760048389435 0.23438499867916107 -0.1287049949169159 0.1947699934244156 -0.061159998178482056 0.0036359999794512987 0.18288199603557587 0.2166689932346344 -0.04958299919962883 -0.1601170003414154 -0.27378201484680176 0.6174579858779907 0.3406749963760376 -0.30086201429367065 -0.010742000304162502 0.4195129871368408 -0.013473999686539173 -0.1563200056552887
▁naam 1.3216609954833984 -0.3841870129108429 -0.7509679794311523 0.6614800095558167 -1.1671260595321655 -0.4995799958705902 0.5194600224494934 -0.43029800057411194 1.4672319889068604 -0.13269799947738647 1.194646954536438 0.5585110187530518 -0.24111199378967285 -1.2417320013046265 1.7017240524291992 0.049417998641729355 -1.2156180143356323 -0.5086579918861389 -0.9191700220108032 -1.1530319452285767 0.011301999911665916 0.44444501399993896 1.758023977279663 1.1168290376663208 0.13027900457382202
amil -0.08302900195121765 -0.7622510194778442 -0.38471099734306335 0.0920180007815361 0.5788450241088867 -0.04281400144100189 0.432559996843338 0.6424689888954163 0.4969559907913208 -0.5088019967079163 0.15088599920272827 0.13804900646209717 0.12748099863529205 0.039556000381708145 0.15939299762248993 -0.3302760124206543 0.8215240240097046 0.2373719960451126 -0.026417000219225883 0.07624100148677826 0.497065007686615 -0.6317200064659119 0.639153003692627 -0.49048298597335815 -0.3205530047416687
schapp -1.0247960090637207 0.36042800545692444 0.33254799246788025 -0.6656460165977478 -0.490217000246048 -0.34449800848960876 -0.9119899868965149 -0.8720920085906982 -0.6140819787979126 0.22963100671768188 0.1002580001950264 0.255279004573822 -0.5544469952583313 -0.7703480124473572 -0.6302480101585388 -0.44206199049949646 -0.401295006275177 -0.8413299918174744 -0.4799500107765198 -0.5247920155525208 0.42407798767089844 -0.6950920224189758 -0.5311359763145447 0.4536319971084595 -0.2130029946565628
ion -0.35275799036026 -0.23354500532150269 0.2193550020456314 0.06749500334262848 0.5017309784889221 -0.4462220072746277 -0.21766600012779236 0.4719719886779785 0.5573019981384277 0.2154799997806549 0.7707579731941223 -0.5599150061607361 0.21364200115203857 -0.4624300003051758 0.3832840025424957 -0.18776600062847137 0.5763580203056335 -0.666845977306366 0.5957009792327881 0.682915985584259 -0.1980929970741272 -0.4113770127296448 0.7045549750328064 0.6246349811553955 -0.813389003276825
rij -0.205935999751091 0.1440410017967224 -0.22338899970054626 -0.8399360179901123 -0.3139899969100952 -0.15236200392246246 -0.8511790037155151 -0.41890600323677063 -0.01152500044554472 -0.26558199524879456 -0.04145300015807152 0.677839994430542 0.19896300137043 -0.11700200289487839 -0.13890400528907776 0.20594599843025208 -0.1179020032286644 -0.11279500275850296 0.239888995885849 -0.63503098487854 -0.5280539989471436 -0.6837630271911621 -0.5648530125617981 -0.6689320206642151 0.2932719886302948
sp 0.16188299655914307 0.3810049891471863 0.1799740046262741 -0.33165600895881653 -0.3295539915561676 -0.11957699805498123 -0.22295400500297546 -0.8013399839401245 0.45065999031066895 0.9519370198249817 0.6083670258522034 0.5750420093536377 0.590470016002655 -0.15158100426197052 -0.2020920068025589 -0.12903599441051483 -0.04335299879312515 0.09254900366067886 0.49190399050712585 -0.17171500623226166 -0.11747899651527405 -0.0059369998052716255 0.12243200093507767 0.5238249897956848 -0.11946900188922882
▁geb -0.026556000113487244 0.2879190146923065 -0.47336000204086304 0.24413900077342987 -0.31012600660324097 0.416269987821579 -0.5783500075340271 -0.06433899700641632 0.06579700112342834 -0.5764600038528442 -0.7595769762992859 0.77777498960495 -0.17167000472545624 -0.007455999962985516 -0.3221220076084137 0.26810500025749207 -0.32054901123046875 -0.2902289927005768 0.13114699721336365 0.023672999814152718 0.44167500734329224 -0.20147299766540527 -0.1901549994945526 -0.421085000038147 0.8640869855880737
ber 0.49254798889160156 0.847648024559021 0.5055530071258545 -0.046243999153375626 0.47077998518943787 0.47256898880004883 0.14273099601268768 0.15420199930667877 -0.22949199378490448 -0.2260430008172989 0.22446399927139282 -0.4918000102043152 -0.20651400089263916 0.28977200388908386 -0.32734400033950806 0.6976230144500732 -1.0866130590438843 0.09432200342416763 -0.0708559975028038 0.1446859985589981 0.12735000252723694 -0.17793899774551392 0.743340015411377 -0.3109619915485382 -0.4550740122795105
amilie 0.8880800008773804 0.8880680203437805 0.10214299708604813 -0.37994399666786194 -0.23598599433898926 -0.09073299914598465 2.0004758834838867 -0.5733349919319153 1.1775670051574707 -0.40032801032066345 0.3556169867515564 0.07966600358486176 0.808663010597229 -0.6155750155448914 0.31472599506378174 -1.0635230541229248 1.7520250082015991 0.15206800401210785 0.6993920207023621 -1.1793370246887207 -0.0044639999978244305 0.7380989789962769 0.967028021812439 0.159744992852211 1.0148040056228638
▁soort 1.3436030149459839 -0.0667629987001419 0.22005200386047363 0.9262949824333191 -1.5312609672546387 -1.312582015991211 1.5314669609069824 0.37499698996543884 1.3901480436325073 -0.6158139705657959 0.2224300056695938 0.6183710098266602 -0.6832600235939026 -0.8599650263786316 1.0659459829330444 -0.34922701120376587 0.2665899991989136 -1.1806989908218384 -1.3758970499038696 -0.3912059962749481 -0.3879519999027252 0.6101899743080139 1.3491840362548828 1.6311630010604858 1.1957730054855347
ien -0.052581001073122025 -0.3081130087375641 -0.14987799525260925 0.4246380031108856 -0.2178869992494583 -0.12149699777364731 -0.045869000256061554 -0.14704500138759613 -0.0883679986000061 -0.5307009816169739 0.14746400713920593 0.35697099566459656 0.17543600499629974 0.1863359957933426 0.12004700303077698 -0.3465000092983246 0.15818800032138824 -0.44902101159095764 0.440667986869812 0.22333799302577972 0.21299299597740173 -0.5210729837417603 -0.3313950002193451 -0.1722629964351654 0.3236750066280365
▁waar -0.014743000268936157 -0.13586099445819855 -0.13398399949073792 0.05896899849176407 -1.1961990594863892 0.2854200005531311 -0.35936498641967773 -0.10352099686861038 -0.6615340113639832 -0.234935000538826 -0.3777720034122467 0.5602759718894958 -0.0038689998909831047 0.08031100034713745 0.2056870013475418 -0.10900499671697617 -0.15410299599170685 -0.5661140084266663 0.25162699818611145 0.16452300548553467 0.1443299949169159 -0.0424019992351532 -0.8308650255203247 -0.18800200521945953 0.18937799334526062
ubl -0.7195360064506531 0.008434999734163284 -0.027960000559687614 -0.07874300330877304 0.5377159714698792 0.2403700053691864 -1.4440510272979736 -0.39382800459861755 0.09191899746656418 -0.2009270042181015 -0.4077489972114563 -0.19802500307559967 -0.7033969759941101 -0.5686219930648804 -0.15911099314689636 -0.1157890036702156 -0.3898569941520691 -0.4458810091018677 0.02695699967443943 0.23795799911022186 -0.11181200295686722 -0.04947499930858612 0.4397619962692261 -0.829846978187561 0.02109299972653389
▁gep 0.5835809707641602 0.6011649966239929 -0.34964099526405334 0.2876569926738739 -0.8126099705696106 0.20839500427246094 -0.4300529956817627 -0.17122900485992432 0.12138699740171432 -0.18268699944019318 -0.13286200165748596 0.8931040167808533 -0.0280969999730587 0.27882900834083557 -0.059310998767614365 0.027171000838279724 -0.33618199825286865 -0.5548689961433411 0.9785699844360352 0.5753089785575867 -0.37272199988365173 -0.2201949954032898 -0.1161080002784729 0.16081899404525757 0.5387709736824036
▁ook 0.13899199664592743 -0.08927500247955322 -0.7026810050010681 0.7385749816894531 -1.3841739892959595 0.7601400017738342 -0.583204984664917 -0.2821429967880249 -0.3393079936504364 -0.4729290008544922 -0.5754680037498474 0.7296689748764038 -0.5084750056266785 -0.5634490251541138 0.06995800137519836 0.4898410141468048 0.23006199300289154 -0.8965070247650146 0.3601120114326477 0.3864459991455078 0.32799801230430603 -0.2779119908809662 -0.15337899327278137 -0.07026500254869461 0.36416199803352356
▁(0000 -0.5381050109863281 -0.7698699831962585 0.20451299846172333 -0.6259239912033081 0.6331890225410461 0.3774450123310089 0.6355270147323608 1.996541976928711 -1.3010380268096924 -0.08427400141954422 0.27783000469207764 -1.1924500465393066 0.46261098980903625 -0.07646100223064423 -0.3620910048484802 0.8802090287208557 0.5386999845504761 0.9695749878883362 0.43584001064300537 -1.0140290260314941 -0.691893994808197 0.21964199841022491 0.07964800298213959 -0.8582969903945923 -0.47531700134277344
oo 0.43754300475120544 -0.3458999991416931 -0.3807240128517151 0.1935880035161972 0.4206160008907318 -0.018131999298930168 0.05501699820160866 -0.28979000449180603 -0.6646630167961121 0.00521499989554286 0.4317049980163574 0.023489000275731087 0.09279800206422806 -0.6201940178871155 -0.9142389893531799 -0.428057998418808 -0.5096709728240967 -0.07500100135803223 -0.11960700154304504 0.7638279795646667 0.30275601148605347 0.41649600863456726 -0.3995389938354492 0.5900939702987671 0.5765590071678162
